<?xml version="1.0"?>
<opencv_storage>
<cascade>
  <stageType>BOOST</stageType>
  <featureType>HAAR</featureType>
  <height>24</height>
  <width>40</width>
  <stageParams>
    <boostType>GAB</boostType>
    <minHitRate>9.9500000476837158e-001</minHitRate>
    <maxFalseAlarm>3.0000001192092896e-001</maxFalseAlarm>
    <weightTrimRate>9.4999998807907104e-001</weightTrimRate>
    <maxDepth>1</maxDepth>
    <maxWeakCount>100</maxWeakCount></stageParams>
  <featureParams>
    <maxCatCount>0</maxCatCount>
    <featSize>1</featSize>
    <mode>ALL</mode></featureParams>
  <stageNum>9</stageNum>
  <stages>
    <!-- stage 0 -->
    <_>
      <maxWeakCount>6</maxWeakCount>
      <stageThreshold>-1.7877638339996338e+000</stageThreshold>
      <weakClassifiers>
        <_>
          <internalNodes>
            0 -1 20 -1.1712181568145752e-001</internalNodes>
          <leafValues>
            7.3333334922790527e-001 -9.0239232778549194e-001</leafValues></_>
        <_>
          <internalNodes>
            0 -1 64 -7.2412211447954178e-003</internalNodes>
          <leafValues>
            5.3769779205322266e-001 -7.9795747995376587e-001</leafValues></_>
        <_>
          <internalNodes>
            0 -1 25 -2.7483202517032623e-002</internalNodes>
          <leafValues>
            4.9046909809112549e-001 -8.0194908380508423e-001</leafValues></_>
        <_>
          <internalNodes>
            0 -1 7 3.7164441309869289e-003</internalNodes>
          <leafValues>
            -5.2355599403381348e-001 5.8420002460479736e-001</leafValues></_>
        <_>
          <internalNodes>
            0 -1 62 7.6707024127244949e-003</internalNodes>
          <leafValues>
            -6.0273259878158569e-001 6.0719078779220581e-001</leafValues></_>
        <_>
          <internalNodes>
            0 -1 8 2.7843937277793884e-003</internalNodes>
          <leafValues>
            -5.5935055017471313e-001 5.9642523527145386e-001</leafValues></_></weakClassifiers></_>
    <!-- stage 1 -->
    <_>
      <maxWeakCount>6</maxWeakCount>
      <stageThreshold>-1.4163807630538940e+000</stageThreshold>
      <weakClassifiers>
        <_>
          <internalNodes>
            0 -1 26 -8.8980719447135925e-002</internalNodes>
          <leafValues>
            5.0000000000000000e-001 -9.0173411369323730e-001</leafValues></_>
        <_>
          <internalNodes>
            0 -1 43 2.6468446478247643e-002</internalNodes>
          <leafValues>
            -7.0617145299911499e-001 4.7136983275413513e-001</leafValues></_>
        <_>
          <internalNodes>
            0 -1 41 4.1003577411174774e-002</internalNodes>
          <leafValues>
            -6.7332303524017334e-001 4.0074044466018677e-001</leafValues></_>
        <_>
          <internalNodes>
            0 -1 2 8.7744835764169693e-003</internalNodes>
          <leafValues>
            -4.6980878710746765e-001 5.9086239337921143e-001</leafValues></_>
        <_>
          <internalNodes>
            0 -1 17 2.0648469217121601e-003</internalNodes>
          <leafValues>
            -3.4418508410453796e-001 6.9023096561431885e-001</leafValues></_>
        <_>
          <internalNodes>
            0 -1 42 -5.1966160535812378e-003</internalNodes>
          <leafValues>
            6.4442563056945801e-001 -3.7093675136566162e-001</leafValues></_></weakClassifiers></_>
    <!-- stage 2 -->
    <_>
      <maxWeakCount>7</maxWeakCount>
      <stageThreshold>-1.7553243637084961e+000</stageThreshold>
      <weakClassifiers>
        <_>
          <internalNodes>
            0 -1 30 -8.8190823793411255e-002</internalNodes>
          <leafValues>
            3.1999999284744263e-001 -8.9038461446762085e-001</leafValues></_>
        <_>
          <internalNodes>
            0 -1 37 1.3812160491943359e-001</internalNodes>
          <leafValues>
            -6.1569482088088989e-001 4.5721623301506042e-001</leafValues></_>
        <_>
          <internalNodes>
            0 -1 66 -8.0476198345422745e-003</internalNodes>
          <leafValues>
            4.0899115800857544e-001 -4.9326771497726440e-001</leafValues></_>
        <_>
          <internalNodes>
            0 -1 11 -2.1976865828037262e-002</internalNodes>
          <leafValues>
            2.8730651736259460e-001 -7.3732030391693115e-001</leafValues></_>
        <_>
          <internalNodes>
            0 -1 12 -6.6938702948391438e-003</internalNodes>
          <leafValues>
            -9.7742617130279541e-001 2.4424719810485840e-001</leafValues></_>
        <_>
          <internalNodes>
            0 -1 48 -1.5805155038833618e-002</internalNodes>
          <leafValues>
            -8.9685642719268799e-001 1.3576029241085052e-001</leafValues></_>
        <_>
          <internalNodes>
            0 -1 38 -3.1096432358026505e-003</internalNodes>
          <leafValues>
            4.9804145097732544e-001 -4.2329129576683044e-001</leafValues></_></weakClassifiers></_>
    <!-- stage 3 -->
    <_>
      <maxWeakCount>9</maxWeakCount>
      <stageThreshold>-2.1358010768890381e+000</stageThreshold>
      <weakClassifiers>
        <_>
          <internalNodes>
            0 -1 56 -1.0365161113440990e-002</internalNodes>
          <leafValues>
            2.6829269528388977e-001 -8.7797904014587402e-001</leafValues></_>
        <_>
          <internalNodes>
            0 -1 32 -1.7347127199172974e-001</internalNodes>
          <leafValues>
            5.5278855562210083e-001 -6.0529756546020508e-001</leafValues></_>
        <_>
          <internalNodes>
            0 -1 49 -1.8040418624877930e-002</internalNodes>
          <leafValues>
            5.1562905311584473e-001 -4.2638728022575378e-001</leafValues></_>
        <_>
          <internalNodes>
            0 -1 1 -6.2832855619490147e-003</internalNodes>
          <leafValues>
            -7.6247406005859375e-001 2.5805565714836121e-001</leafValues></_>
        <_>
          <internalNodes>
            0 -1 58 -1.2241508811712265e-003</internalNodes>
          <leafValues>
            4.8277240991592407e-001 -4.2803034186363220e-001</leafValues></_>
        <_>
          <internalNodes>
            0 -1 61 6.1405543237924576e-003</internalNodes>
          <leafValues>
            -6.0177135467529297e-001 3.8648569583892822e-001</leafValues></_>
        <_>
          <internalNodes>
            0 -1 47 4.9195704050362110e-003</internalNodes>
          <leafValues>
            -3.8043236732482910e-001 5.7927089929580688e-001</leafValues></_>
        <_>
          <internalNodes>
            0 -1 59 -6.6192902158945799e-004</internalNodes>
          <leafValues>
            -7.8537738323211670e-001 2.6425349712371826e-001</leafValues></_>
        <_>
          <internalNodes>
            0 -1 14 -4.1071332991123199e-002</internalNodes>
          <leafValues>
            6.3556653261184692e-001 -3.2646930217742920e-001</leafValues></_></weakClassifiers></_>
    <!-- stage 4 -->
    <_>
      <maxWeakCount>8</maxWeakCount>
      <stageThreshold>-1.3716276884078979e+000</stageThreshold>
      <weakClassifiers>
        <_>
          <internalNodes>
            0 -1 39 -6.4425557851791382e-002</internalNodes>
          <leafValues>
            6.9999998807907104e-001 -8.6355137825012207e-001</leafValues></_>
        <_>
          <internalNodes>
            0 -1 33 -2.7813944965600967e-002</internalNodes>
          <leafValues>
            3.3633118867874146e-001 -6.9926059246063232e-001</leafValues></_>
        <_>
          <internalNodes>
            0 -1 10 9.0387556701898575e-003</internalNodes>
          <leafValues>
            -5.2704650163650513e-001 3.7491086125373840e-001</leafValues></_>
        <_>
          <internalNodes>
            0 -1 40 -7.1886769728735089e-004</internalNodes>
          <leafValues>
            -8.6823159456253052e-001 2.2736406326293945e-001</leafValues></_>
        <_>
          <internalNodes>
            0 -1 36 -8.8995811529457569e-004</internalNodes>
          <leafValues>
            -8.7753552198410034e-001 1.9327543675899506e-001</leafValues></_>
        <_>
          <internalNodes>
            0 -1 52 5.6490772403776646e-003</internalNodes>
          <leafValues>
            -3.4147354960441589e-001 5.5120307207107544e-001</leafValues></_>
        <_>
          <internalNodes>
            0 -1 9 -3.5358662717044353e-003</internalNodes>
          <leafValues>
            -8.1172597408294678e-001 2.5115662813186646e-001</leafValues></_>
        <_>
          <internalNodes>
            0 -1 31 1.3917449396103621e-003</internalNodes>
          <leafValues>
            -3.3216705918312073e-001 5.5811423063278198e-001</leafValues></_></weakClassifiers></_>
    <!-- stage 5 -->
    <_>
      <maxWeakCount>7</maxWeakCount>
      <stageThreshold>-1.4813929796218872e+000</stageThreshold>
      <weakClassifiers>
        <_>
          <internalNodes>
            0 -1 0 1.2537477537989616e-002</internalNodes>
          <leafValues>
            -8.9452737569808960e-001 -1.2941177189350128e-001</leafValues></_>
        <_>
          <internalNodes>
            0 -1 55 -2.6800267398357391e-002</internalNodes>
          <leafValues>
            1.5083941817283630e-001 -6.3326716423034668e-001</leafValues></_>
        <_>
          <internalNodes>
            0 -1 21 -4.9311211332678795e-003</internalNodes>
          <leafValues>
            -8.6194944381713867e-001 1.6325090825557709e-001</leafValues></_>
        <_>
          <internalNodes>
            0 -1 44 -4.1484378278255463e-002</internalNodes>
          <leafValues>
            7.9088634252548218e-001 -2.5555029511451721e-001</leafValues></_>
        <_>
          <internalNodes>
            0 -1 5 2.5343433022499084e-002</internalNodes>
          <leafValues>
            2.3691156506538391e-001 -9.4916641712188721e-001</leafValues></_>
        <_>
          <internalNodes>
            0 -1 13 -1.3186156749725342e-002</internalNodes>
          <leafValues>
            -8.3796852827072144e-001 2.0865458250045776e-001</leafValues></_>
        <_>
          <internalNodes>
            0 -1 15 -7.3295891284942627e-002</internalNodes>
          <leafValues>
            6.4010560512542725e-001 -3.0667877197265625e-001</leafValues></_></weakClassifiers></_>
    <!-- stage 6 -->
    <_>
      <maxWeakCount>9</maxWeakCount>
      <stageThreshold>-1.4880335330963135e+000</stageThreshold>
      <weakClassifiers>
        <_>
          <internalNodes>
            0 -1 27 -1.1485433578491211e-001</internalNodes>
          <leafValues>
            6.1538463830947876e-001 -8.7030076980590820e-001</leafValues></_>
        <_>
          <internalNodes>
            0 -1 35 -3.4315582364797592e-002</internalNodes>
          <leafValues>
            2.4779529869556427e-001 -6.0786002874374390e-001</leafValues></_>
        <_>
          <internalNodes>
            0 -1 29 1.0132801253348589e-003</internalNodes>
          <leafValues>
            1.0891272127628326e-001 -9.7616767883300781e-001</leafValues></_>
        <_>
          <internalNodes>
            0 -1 28 -7.6076528057456017e-004</internalNodes>
          <leafValues>
            -9.5159912109375000e-001 1.5745215117931366e-001</leafValues></_>
        <_>
          <internalNodes>
            0 -1 50 7.3119555599987507e-003</internalNodes>
          <leafValues>
            -3.2473057508468628e-001 5.7933115959167480e-001</leafValues></_>
        <_>
          <internalNodes>
            0 -1 19 1.8381012603640556e-002</internalNodes>
          <leafValues>
            -7.0848464965820313e-001 2.1088799834251404e-001</leafValues></_>
        <_>
          <internalNodes>
            0 -1 45 3.7989518605172634e-003</internalNodes>
          <leafValues>
            -3.4254780411720276e-001 4.8817655444145203e-001</leafValues></_>
        <_>
          <internalNodes>
            0 -1 4 1.4368528127670288e-001</internalNodes>
          <leafValues>
            1.8504823744297028e-001 -8.1873530149459839e-001</leafValues></_>
        <_>
          <internalNodes>
            0 -1 46 5.9090489521622658e-003</internalNodes>
          <leafValues>
            1.6816371679306030e-001 -7.6473879814147949e-001</leafValues></_></weakClassifiers></_>
    <!-- stage 7 -->
    <_>
      <maxWeakCount>7</maxWeakCount>
      <stageThreshold>-1.3490086793899536e+000</stageThreshold>
      <weakClassifiers>
        <_>
          <internalNodes>
            0 -1 23 -1.4060012996196747e-001</internalNodes>
          <leafValues>
            2.1212121844291687e-001 -8.6754965782165527e-001</leafValues></_>
        <_>
          <internalNodes>
            0 -1 65 -6.6431537270545959e-003</internalNodes>
          <leafValues>
            3.1157605350017548e-002 -6.7857396602630615e-001</leafValues></_>
        <_>
          <internalNodes>
            0 -1 57 -5.2832830697298050e-003</internalNodes>
          <leafValues>
            -6.8893188238143921e-001 1.7941245436668396e-001</leafValues></_>
        <_>
          <internalNodes>
            0 -1 63 4.5247632078826427e-003</internalNodes>
          <leafValues>
            -3.0003187060356140e-001 5.4764336347579956e-001</leafValues></_>
        <_>
          <internalNodes>
            0 -1 6 7.5077908113598824e-003</internalNodes>
          <leafValues>
            -2.3674388229846954e-001 6.6158914566040039e-001</leafValues></_>
        <_>
          <internalNodes>
            0 -1 3 9.9160964600741863e-004</internalNodes>
          <leafValues>
            -6.3252770900726318e-001 3.0740261077880859e-001</leafValues></_>
        <_>
          <internalNodes>
            0 -1 53 -8.4644295275211334e-003</internalNodes>
          <leafValues>
            4.0568846464157104e-001 -4.1572651267051697e-001</leafValues></_></weakClassifiers></_>
    <!-- stage 8 -->
    <_>
      <maxWeakCount>8</maxWeakCount>
      <stageThreshold>-1.2291742563247681e+000</stageThreshold>
      <weakClassifiers>
        <_>
          <internalNodes>
            0 -1 18 -1.9552879035472870e-002</internalNodes>
          <leafValues>
            3.5135135054588318e-001 -8.2264667749404907e-001</leafValues></_>
        <_>
          <internalNodes>
            0 -1 16 -3.8747608661651611e-002</internalNodes>
          <leafValues>
            4.2340669035911560e-001 -5.1251250505447388e-001</leafValues></_>
        <_>
          <internalNodes>
            0 -1 34 -7.8080587089061737e-002</internalNodes>
          <leafValues>
            7.6719111204147339e-001 -2.5297275185585022e-001</leafValues></_>
        <_>
          <internalNodes>
            0 -1 60 -4.6547735109925270e-003</internalNodes>
          <leafValues>
            3.5294663906097412e-001 -5.1741480827331543e-001</leafValues></_>
        <_>
          <internalNodes>
            0 -1 54 -3.3083236776292324e-003</internalNodes>
          <leafValues>
            8.1035619974136353e-001 -2.3371627926826477e-001</leafValues></_>
        <_>
          <internalNodes>
            0 -1 24 -1.4587477780878544e-003</internalNodes>
          <leafValues>
            -4.7476670145988464e-001 3.7021249532699585e-001</leafValues></_>
        <_>
          <internalNodes>
            0 -1 51 1.0423355270177126e-003</internalNodes>
          <leafValues>
            -4.1692495346069336e-001 4.2871806025505066e-001</leafValues></_>
        <_>
          <internalNodes>
            0 -1 22 -3.2028988935053349e-003</internalNodes>
          <leafValues>
            -5.5920326709747314e-001 3.1297296285629272e-001</leafValues></_></weakClassifiers></_></stages>
  <features>
    <_>
      <rects>
        <_>
          0 0 2 24 -1.</_>
        <_>
          1 0 1 24 2.</_></rects>
      <tilted>0</tilted></_>
    <_>
      <rects>
        <_>
          0 0 12 24 -1.</_>
        <_>
          3 0 6 24 2.</_></rects>
      <tilted>0</tilted></_>
    <_>
      <rects>
        <_>
          0 4 6 7 -1.</_>
        <_>
          2 4 2 7 3.</_></rects>
      <tilted>0</tilted></_>
    <_>
      <rects>
        <_>
          0 9 4 9 -1.</_>
        <_>
          2 9 2 9 2.</_></rects>
      <tilted>0</tilted></_>
    <_>
      <rects>
        <_>
          2 0 34 22 -1.</_>
        <_>
          19 0 17 22 2.</_></rects>
      <tilted>0</tilted></_>
    <_>
      <rects>
        <_>
          2 1 10 12 -1.</_>
        <_>
          7 1 5 12 2.</_></rects>
      <tilted>0</tilted></_>
    <_>
      <rects>
        <_>
          2 22 22 2 -1.</_>
        <_>
          2 22 11 1 2.</_>
        <_>
          13 23 11 1 2.</_></rects>
      <tilted>0</tilted></_>
    <_>
      <rects>
        <_>
          3 10 3 10 -1.</_>
        <_>
          4 10 1 10 3.</_></rects>
      <tilted>0</tilted></_>
    <_>
      <rects>
        <_>
          3 14 7 2 -1.</_>
        <_>
          3 14 7 1 2.</_></rects>
      <tilted>1</tilted></_>
    <_>
      <rects>
        <_>
          5 3 12 9 -1.</_>
        <_>
          8 3 6 9 2.</_></rects>
      <tilted>0</tilted></_>
    <_>
      <rects>
        <_>
          5 7 6 8 -1.</_>
        <_>
          7 7 2 8 3.</_></rects>
      <tilted>0</tilted></_>
    <_>
      <rects>
        <_>
          6 1 20 13 -1.</_>
        <_>
          11 1 10 13 2.</_></rects>
      <tilted>0</tilted></_>
    <_>
      <rects>
        <_>
          6 9 12 14 -1.</_>
        <_>
          9 9 6 14 2.</_></rects>
      <tilted>0</tilted></_>
    <_>
      <rects>
        <_>
          7 11 9 4 -1.</_>
        <_>
          10 14 3 4 3.</_></rects>
      <tilted>1</tilted></_>
    <_>
      <rects>
        <_>
          8 0 20 9 -1.</_>
        <_>
          8 3 20 3 3.</_></rects>
      <tilted>0</tilted></_>
    <_>
      <rects>
        <_>
          8 4 15 6 -1.</_>
        <_>
          13 6 5 2 9.</_></rects>
      <tilted>0</tilted></_>
    <_>
      <rects>
        <_>
          8 5 15 4 -1.</_>
        <_>
          13 5 5 4 3.</_></rects>
      <tilted>0</tilted></_>
    <_>
      <rects>
        <_>
          8 11 3 2 -1.</_>
        <_>
          9 11 1 2 3.</_></rects>
      <tilted>0</tilted></_>
    <_>
      <rects>
        <_>
          9 4 3 12 -1.</_>
        <_>
          10 4 1 12 3.</_></rects>
      <tilted>0</tilted></_>
    <_>
      <rects>
        <_>
          10 3 28 17 -1.</_>
        <_>
          24 3 14 17 2.</_></rects>
      <tilted>0</tilted></_>
    <_>
      <rects>
        <_>
          10 6 15 10 -1.</_>
        <_>
          15 6 5 10 3.</_></rects>
      <tilted>0</tilted></_>
    <_>
      <rects>
        <_>
          11 0 9 4 -1.</_>
        <_>
          14 0 3 4 3.</_></rects>
      <tilted>0</tilted></_>
    <_>
      <rects>
        <_>
          11 1 6 22 -1.</_>
        <_>
          11 1 3 11 2.</_>
        <_>
          14 12 3 11 2.</_></rects>
      <tilted>0</tilted></_>
    <_>
      <rects>
        <_>
          11 5 12 10 -1.</_>
        <_>
          15 5 4 10 3.</_></rects>
      <tilted>0</tilted></_>
    <_>
      <rects>
        <_>
          11 11 27 6 -1.</_>
        <_>
          11 13 27 2 3.</_></rects>
      <tilted>0</tilted></_>
    <_>
      <rects>
        <_>
          12 0 9 8 -1.</_>
        <_>
          12 0 9 4 2.</_></rects>
      <tilted>1</tilted></_>
    <_>
      <rects>
        <_>
          12 4 12 14 -1.</_>
        <_>
          15 4 6 14 2.</_></rects>
      <tilted>0</tilted></_>
    <_>
      <rects>
        <_>
          12 5 9 13 -1.</_>
        <_>
          15 5 3 13 3.</_></rects>
      <tilted>0</tilted></_>
    <_>
      <rects>
        <_>
          13 0 3 2 -1.</_>
        <_>
          14 0 1 2 3.</_></rects>
      <tilted>0</tilted></_>
    <_>
      <rects>
        <_>
          13 0 3 3 -1.</_>
        <_>
          14 0 1 3 3.</_></rects>
      <tilted>0</tilted></_>
    <_>
      <rects>
        <_>
          13 5 9 11 -1.</_>
        <_>
          16 5 3 11 3.</_></rects>
      <tilted>0</tilted></_>
    <_>
      <rects>
        <_>
          13 12 3 1 -1.</_>
        <_>
          14 12 1 1 3.</_></rects>
      <tilted>0</tilted></_>
    <_>
      <rects>
        <_>
          14 2 9 21 -1.</_>
        <_>
          17 9 3 7 9.</_></rects>
      <tilted>0</tilted></_>
    <_>
      <rects>
        <_>
          14 5 6 12 -1.</_>
        <_>
          16 5 2 12 3.</_></rects>
      <tilted>0</tilted></_>
    <_>
      <rects>
        <_>
          14 5 12 10 -1.</_>
        <_>
          18 5 4 10 3.</_></rects>
      <tilted>0</tilted></_>
    <_>
      <rects>
        <_>
          14 8 6 12 -1.</_>
        <_>
          17 8 3 12 2.</_></rects>
      <tilted>0</tilted></_>
    <_>
      <rects>
        <_>
          15 0 3 4 -1.</_>
        <_>
          16 0 1 4 3.</_></rects>
      <tilted>0</tilted></_>
    <_>
      <rects>
        <_>
          15 0 20 24 -1.</_>
        <_>
          15 6 20 12 2.</_></rects>
      <tilted>0</tilted></_>
    <_>
      <rects>
        <_>
          15 1 6 4 -1.</_>
        <_>
          15 2 6 2 2.</_></rects>
      <tilted>0</tilted></_>
    <_>
      <rects>
        <_>
          15 10 9 7 -1.</_>
        <_>
          18 10 3 7 3.</_></rects>
      <tilted>0</tilted></_>
    <_>
      <rects>
        <_>
          16 1 4 2 -1.</_>
        <_>
          17 1 2 2 2.</_></rects>
      <tilted>0</tilted></_>
    <_>
      <rects>
        <_>
          16 1 16 22 -1.</_>
        <_>
          24 1 8 22 2.</_></rects>
      <tilted>0</tilted></_>
    <_>
      <rects>
        <_>
          16 4 6 3 -1.</_>
        <_>
          15 5 6 1 3.</_></rects>
      <tilted>1</tilted></_>
    <_>
      <rects>
        <_>
          16 6 6 9 -1.</_>
        <_>
          19 6 3 9 2.</_></rects>
      <tilted>0</tilted></_>
    <_>
      <rects>
        <_>
          16 7 8 14 -1.</_>
        <_>
          18 7 4 14 2.</_></rects>
      <tilted>0</tilted></_>
    <_>
      <rects>
        <_>
          17 18 9 1 -1.</_>
        <_>
          20 18 3 1 3.</_></rects>
      <tilted>0</tilted></_>
    <_>
      <rects>
        <_>
          18 10 8 6 -1.</_>
        <_>
          18 13 8 3 2.</_></rects>
      <tilted>0</tilted></_>
    <_>
      <rects>
        <_>
          22 2 4 4 -1.</_>
        <_>
          22 4 4 2 2.</_></rects>
      <tilted>0</tilted></_>
    <_>
      <rects>
        <_>
          22 2 16 8 -1.</_>
        <_>
          26 2 8 8 2.</_></rects>
      <tilted>0</tilted></_>
    <_>
      <rects>
        <_>
          22 18 16 6 -1.</_>
        <_>
          22 21 16 3 2.</_></rects>
      <tilted>0</tilted></_>
    <_>
      <rects>
        <_>
          23 10 3 12 -1.</_>
        <_>
          24 10 1 12 3.</_></rects>
      <tilted>0</tilted></_>
    <_>
      <rects>
        <_>
          24 7 3 6 -1.</_>
        <_>
          25 7 1 6 3.</_></rects>
      <tilted>0</tilted></_>
    <_>
      <rects>
        <_>
          24 13 5 3 -1.</_>
        <_>
          23 14 5 1 3.</_></rects>
      <tilted>1</tilted></_>
    <_>
      <rects>
        <_>
          24 18 7 6 -1.</_>
        <_>
          24 21 7 3 2.</_></rects>
      <tilted>0</tilted></_>
    <_>
      <rects>
        <_>
          26 1 2 4 -1.</_>
        <_>
          26 2 2 2 2.</_></rects>
      <tilted>0</tilted></_>
    <_>
      <rects>
        <_>
          26 5 6 16 -1.</_>
        <_>
          28 5 2 16 3.</_></rects>
      <tilted>0</tilted></_>
    <_>
      <rects>
        <_>
          27 10 4 5 -1.</_>
        <_>
          28 10 2 5 2.</_></rects>
      <tilted>0</tilted></_>
    <_>
      <rects>
        <_>
          28 0 12 13 -1.</_>
        <_>
          31 0 6 13 2.</_></rects>
      <tilted>0</tilted></_>
    <_>
      <rects>
        <_>
          29 22 3 2 -1.</_>
        <_>
          29 23 3 1 2.</_></rects>
      <tilted>0</tilted></_>
    <_>
      <rects>
        <_>
          31 1 4 2 -1.</_>
        <_>
          32 1 2 2 2.</_></rects>
      <tilted>0</tilted></_>
    <_>
      <rects>
        <_>
          31 2 8 13 -1.</_>
        <_>
          33 2 4 13 2.</_></rects>
      <tilted>0</tilted></_>
    <_>
      <rects>
        <_>
          34 0 6 17 -1.</_>
        <_>
          36 0 2 17 3.</_></rects>
      <tilted>0</tilted></_>
    <_>
      <rects>
        <_>
          34 4 6 13 -1.</_>
        <_>
          36 4 2 13 3.</_></rects>
      <tilted>0</tilted></_>
    <_>
      <rects>
        <_>
          34 19 2 3 -1.</_>
        <_>
          34 19 1 3 2.</_></rects>
      <tilted>1</tilted></_>
    <_>
      <rects>
        <_>
          38 1 2 23 -1.</_>
        <_>
          39 1 1 23 2.</_></rects>
      <tilted>0</tilted></_>
    <_>
      <rects>
        <_>
          38 3 2 16 -1.</_>
        <_>
          39 3 1 16 2.</_></rects>
      <tilted>0</tilted></_>
    <_>
      <rects>
        <_>
          38 3 2 21 -1.</_>
        <_>
          39 3 1 21 2.</_></rects>
      <tilted>0</tilted></_></features></cascade>
</opencv_storage>
