<?xml version="1.0"?>
<opencv_storage>
<cascade>
  <stageType>BOOST</stageType>
  <featureType>HAAR</featureType>
  <height>24</height>
  <width>40</width>
  <stageParams>
    <boostType>GAB</boostType>
    <minHitRate>9.9500000476837158e-001</minHitRate>
    <maxFalseAlarm>5.0000000000000000e-001</maxFalseAlarm>
    <weightTrimRate>9.4999998807907104e-001</weightTrimRate>
    <maxDepth>1</maxDepth>
    <maxWeakCount>100</maxWeakCount></stageParams>
  <featureParams>
    <maxCatCount>0</maxCatCount>
    <featSize>1</featSize>
    <mode>BASIC</mode></featureParams>
  <stageNum>14</stageNum>
  <stages>
    <!-- stage 0 -->
    <_>
      <maxWeakCount>4</maxWeakCount>
      <stageThreshold>-1.6996179819107056e+000</stageThreshold>
      <weakClassifiers>
        <_>
          <internalNodes>
            0 -1 41 3.1334504485130310e-002</internalNodes>
          <leafValues>
            -8.8566404581069946e-001 4.4999998807907104e-001</leafValues></_>
        <_>
          <internalNodes>
            0 -1 35 -6.9418186321854591e-003</internalNodes>
          <leafValues>
            4.6392568945884705e-001 -7.7854084968566895e-001</leafValues></_>
        <_>
          <internalNodes>
            0 -1 81 2.4187234230339527e-003</internalNodes>
          <leafValues>
            -4.8426443338394165e-001 8.1082648038864136e-001</leafValues></_>
        <_>
          <internalNodes>
            0 -1 15 6.1991699039936066e-003</internalNodes>
          <leafValues>
            -7.5954163074493408e-001 4.4885137677192688e-001</leafValues></_></weakClassifiers></_>
    <!-- stage 1 -->
    <_>
      <maxWeakCount>5</maxWeakCount>
      <stageThreshold>-1.7258921861648560e+000</stageThreshold>
      <weakClassifiers>
        <_>
          <internalNodes>
            0 -1 40 4.7498796135187149e-002</internalNodes>
          <leafValues>
            -8.4732824563980103e-001 5.4237288236618042e-001</leafValues></_>
        <_>
          <internalNodes>
            0 -1 59 5.0037382170557976e-003</internalNodes>
          <leafValues>
            -5.9340095520019531e-001 7.4828439950942993e-001</leafValues></_>
        <_>
          <internalNodes>
            0 -1 68 3.2062148675322533e-003</internalNodes>
          <leafValues>
            -3.9753988385200500e-001 7.9168760776519775e-001</leafValues></_>
        <_>
          <internalNodes>
            0 -1 17 -2.9226560145616531e-003</internalNodes>
          <leafValues>
            7.6561194658279419e-001 -3.3764544129371643e-001</leafValues></_>
        <_>
          <internalNodes>
            0 -1 22 1.3807119801640511e-002</internalNodes>
          <leafValues>
            -5.8191221952438354e-001 4.5002228021621704e-001</leafValues></_></weakClassifiers></_>
    <!-- stage 2 -->
    <_>
      <maxWeakCount>5</maxWeakCount>
      <stageThreshold>-1.5625382661819458e+000</stageThreshold>
      <weakClassifiers>
        <_>
          <internalNodes>
            0 -1 82 -8.1020649522542953e-003</internalNodes>
          <leafValues>
            5.8974361419677734e-001 -8.0475801229476929e-001</leafValues></_>
        <_>
          <internalNodes>
            0 -1 42 2.5882909074425697e-002</internalNodes>
          <leafValues>
            -6.8298417329788208e-001 4.2621672153472900e-001</leafValues></_>
        <_>
          <internalNodes>
            0 -1 75 1.1857789941132069e-003</internalNodes>
          <leafValues>
            -3.7816146016120911e-001 7.5132811069488525e-001</leafValues></_>
        <_>
          <internalNodes>
            0 -1 79 3.8290699012577534e-003</internalNodes>
          <leafValues>
            -3.0841830372810364e-001 7.3356533050537109e-001</leafValues></_>
        <_>
          <internalNodes>
            0 -1 20 -2.5909075513482094e-002</internalNodes>
          <leafValues>
            6.1178368330001831e-001 -4.0326383709907532e-001</leafValues></_></weakClassifiers></_>
    <!-- stage 3 -->
    <_>
      <maxWeakCount>5</maxWeakCount>
      <stageThreshold>-1.4006307125091553e+000</stageThreshold>
      <weakClassifiers>
        <_>
          <internalNodes>
            0 -1 26 9.1865602880716324e-003</internalNodes>
          <leafValues>
            -8.1426203250885010e-001 5.1648354530334473e-001</leafValues></_>
        <_>
          <internalNodes>
            0 -1 24 4.8194015398621559e-003</internalNodes>
          <leafValues>
            -5.3263229131698608e-001 7.3612260818481445e-001</leafValues></_>
        <_>
          <internalNodes>
            0 -1 4 1.6966070979833603e-002</internalNodes>
          <leafValues>
            -4.2158704996109009e-001 5.8315324783325195e-001</leafValues></_>
        <_>
          <internalNodes>
            0 -1 19 8.1388372927904129e-004</internalNodes>
          <leafValues>
            -3.6352580785751343e-001 6.5700036287307739e-001</leafValues></_>
        <_>
          <internalNodes>
            0 -1 61 4.3219858780503273e-003</internalNodes>
          <leafValues>
            -2.7336391806602478e-001 7.5675678253173828e-001</leafValues></_></weakClassifiers></_>
    <!-- stage 4 -->
    <_>
      <maxWeakCount>6</maxWeakCount>
      <stageThreshold>-1.4516029357910156e+000</stageThreshold>
      <weakClassifiers>
        <_>
          <internalNodes>
            0 -1 70 -6.5111434087157249e-003</internalNodes>
          <leafValues>
            6.2500000000000000e-001 -7.9075425863265991e-001</leafValues></_>
        <_>
          <internalNodes>
            0 -1 72 -1.0258272290229797e-002</internalNodes>
          <leafValues>
            8.7296932935714722e-001 -4.1783228516578674e-001</leafValues></_>
        <_>
          <internalNodes>
            0 -1 30 -3.7126574898138642e-004</internalNodes>
          <leafValues>
            -8.6019635200500488e-001 2.5283598899841309e-001</leafValues></_>
        <_>
          <internalNodes>
            0 -1 30 4.7510262811556458e-004</internalNodes>
          <leafValues>
            2.5075232982635498e-001 -8.6120128631591797e-001</leafValues></_>
        <_>
          <internalNodes>
            0 -1 51 6.0742092318832874e-004</internalNodes>
          <leafValues>
            1.4722664654254913e-001 -9.0416759252548218e-001</leafValues></_>
        <_>
          <internalNodes>
            0 -1 50 -5.1068793982267380e-004</internalNodes>
          <leafValues>
            -8.9033997058868408e-001 2.1920093894004822e-001</leafValues></_></weakClassifiers></_>
    <!-- stage 5 -->
    <_>
      <maxWeakCount>7</maxWeakCount>
      <stageThreshold>-1.8733220100402832e+000</stageThreshold>
      <weakClassifiers>
        <_>
          <internalNodes>
            0 -1 80 7.8556351363658905e-003</internalNodes>
          <leafValues>
            -8.1587839126586914e-001 2.7433627843856812e-001</leafValues></_>
        <_>
          <internalNodes>
            0 -1 78 6.2520452775061131e-003</internalNodes>
          <leafValues>
            -5.1253283023834229e-001 5.8683186769485474e-001</leafValues></_>
        <_>
          <internalNodes>
            0 -1 74 4.6865888871252537e-003</internalNodes>
          <leafValues>
            -3.4103989601135254e-001 5.9254497289657593e-001</leafValues></_>
        <_>
          <internalNodes>
            0 -1 31 1.5573420096188784e-003</internalNodes>
          <leafValues>
            2.0594331622123718e-001 -9.5202481746673584e-001</leafValues></_>
        <_>
          <internalNodes>
            0 -1 37 9.1953331138938665e-004</internalNodes>
          <leafValues>
            2.7599617838859558e-001 -7.2218918800354004e-001</leafValues></_>
        <_>
          <internalNodes>
            0 -1 6 -3.0883923172950745e-002</internalNodes>
          <leafValues>
            -9.4778954982757568e-001 1.5288089215755463e-001</leafValues></_>
        <_>
          <internalNodes>
            0 -1 13 2.6463195681571960e-002</internalNodes>
          <leafValues>
            1.5949411690235138e-001 -9.2120182514190674e-001</leafValues></_></weakClassifiers></_>
    <!-- stage 6 -->
    <_>
      <maxWeakCount>6</maxWeakCount>
      <stageThreshold>-2.0599014759063721e+000</stageThreshold>
      <weakClassifiers>
        <_>
          <internalNodes>
            0 -1 18 -6.4606545493006706e-003</internalNodes>
          <leafValues>
            3.4999999403953552e-001 -7.9129004478454590e-001</leafValues></_>
        <_>
          <internalNodes>
            0 -1 28 -2.1278843283653259e-002</internalNodes>
          <leafValues>
            3.4382045269012451e-001 -5.7106053829193115e-001</leafValues></_>
        <_>
          <internalNodes>
            0 -1 36 -4.7513114986941218e-004</internalNodes>
          <leafValues>
            -8.4469443559646606e-001 1.9164367020130157e-001</leafValues></_>
        <_>
          <internalNodes>
            0 -1 45 -1.9739825278520584e-002</internalNodes>
          <leafValues>
            4.6515694260597229e-001 -3.9853104948997498e-001</leafValues></_>
        <_>
          <internalNodes>
            0 -1 49 -1.1983594857156277e-002</internalNodes>
          <leafValues>
            5.2023881673812866e-001 -3.7182915210723877e-001</leafValues></_>
        <_>
          <internalNodes>
            0 -1 69 3.8506381679326296e-003</internalNodes>
          <leafValues>
            -2.2378619015216827e-001 7.5729042291641235e-001</leafValues></_></weakClassifiers></_>
    <!-- stage 7 -->
    <_>
      <maxWeakCount>7</maxWeakCount>
      <stageThreshold>-1.4453933238983154e+000</stageThreshold>
      <weakClassifiers>
        <_>
          <internalNodes>
            0 -1 89 1.3639515265822411e-002</internalNodes>
          <leafValues>
            -7.9932546615600586e-001 1.1711711436510086e-001</leafValues></_>
        <_>
          <internalNodes>
            0 -1 86 3.9658015593886375e-003</internalNodes>
          <leafValues>
            -5.1763182878494263e-001 4.3487617373466492e-001</leafValues></_>
        <_>
          <internalNodes>
            0 -1 52 3.1962525099515915e-003</internalNodes>
          <leafValues>
            -4.8891928791999817e-001 3.2060033082962036e-001</leafValues></_>
        <_>
          <internalNodes>
            0 -1 3 -8.6674629710614681e-004</internalNodes>
          <leafValues>
            3.0036094784736633e-001 -5.1944720745086670e-001</leafValues></_>
        <_>
          <internalNodes>
            0 -1 33 -6.5365480259060860e-004</internalNodes>
          <leafValues>
            -8.7608981132507324e-001 1.7774330079555511e-001</leafValues></_>
        <_>
          <internalNodes>
            0 -1 11 5.2015716210007668e-003</internalNodes>
          <leafValues>
            -2.7682018280029297e-001 5.8173197507858276e-001</leafValues></_>
        <_>
          <internalNodes>
            0 -1 54 7.8660110011696815e-004</internalNodes>
          <leafValues>
            1.6948774456977844e-001 -9.7273641824722290e-001</leafValues></_></weakClassifiers></_>
    <!-- stage 8 -->
    <_>
      <maxWeakCount>7</maxWeakCount>
      <stageThreshold>-1.6248810291290283e+000</stageThreshold>
      <weakClassifiers>
        <_>
          <internalNodes>
            0 -1 77 -5.2972319535911083e-003</internalNodes>
          <leafValues>
            4.3750000000000000e-001 -7.8102189302444458e-001</leafValues></_>
        <_>
          <internalNodes>
            0 -1 76 1.0882058413699269e-003</internalNodes>
          <leafValues>
            -4.8417070508003235e-001 3.4558081626892090e-001</leafValues></_>
        <_>
          <internalNodes>
            0 -1 7 3.2661478035151958e-003</internalNodes>
          <leafValues>
            2.3114840686321259e-001 -6.5090036392211914e-001</leafValues></_>
        <_>
          <internalNodes>
            0 -1 92 6.1660713981837034e-004</internalNodes>
          <leafValues>
            -3.0263072252273560e-001 5.9647089242935181e-001</leafValues></_>
        <_>
          <internalNodes>
            0 -1 0 6.6700885072350502e-003</internalNodes>
          <leafValues>
            -2.5947204232215881e-001 5.2948093414306641e-001</leafValues></_>
        <_>
          <internalNodes>
            0 -1 66 1.1699083261191845e-003</internalNodes>
          <leafValues>
            -1.9148856401443481e-001 6.4676195383071899e-001</leafValues></_>
        <_>
          <internalNodes>
            0 -1 29 -1.5690238797105849e-004</internalNodes>
          <leafValues>
            -7.5530767440795898e-001 2.1505175530910492e-001</leafValues></_></weakClassifiers></_>
    <!-- stage 9 -->
    <_>
      <maxWeakCount>7</maxWeakCount>
      <stageThreshold>-1.5016499757766724e+000</stageThreshold>
      <weakClassifiers>
        <_>
          <internalNodes>
            0 -1 27 8.4966719150543213e-003</internalNodes>
          <leafValues>
            -7.8973102569580078e-001 4.8571428656578064e-001</leafValues></_>
        <_>
          <internalNodes>
            0 -1 23 2.5343650486320257e-003</internalNodes>
          <leafValues>
            -4.9497228860855103e-001 3.8388794660568237e-001</leafValues></_>
        <_>
          <internalNodes>
            0 -1 34 5.8680698275566101e-003</internalNodes>
          <leafValues>
            -2.9105350375175476e-001 5.6427651643753052e-001</leafValues></_>
        <_>
          <internalNodes>
            0 -1 88 8.5592865943908691e-003</internalNodes>
          <leafValues>
            -2.4995224177837372e-001 6.2287467718124390e-001</leafValues></_>
        <_>
          <internalNodes>
            0 -1 83 -1.9474775763228536e-003</internalNodes>
          <leafValues>
            7.3404765129089355e-001 -2.1590052545070648e-001</leafValues></_>
        <_>
          <internalNodes>
            0 -1 56 3.4849822986871004e-004</internalNodes>
          <leafValues>
            2.3740978538990021e-001 -7.2637420892715454e-001</leafValues></_>
        <_>
          <internalNodes>
            0 -1 55 -4.9272563774138689e-004</internalNodes>
          <leafValues>
            3.8747364282608032e-001 -4.8563459515571594e-001</leafValues></_></weakClassifiers></_>
    <!-- stage 10 -->
    <_>
      <maxWeakCount>7</maxWeakCount>
      <stageThreshold>-1.5715978145599365e+000</stageThreshold>
      <weakClassifiers>
        <_>
          <internalNodes>
            0 -1 64 -1.0320478118956089e-002</internalNodes>
          <leafValues>
            5.3846156597137451e-001 -7.7349400520324707e-001</leafValues></_>
        <_>
          <internalNodes>
            0 -1 65 4.6501695178449154e-003</internalNodes>
          <leafValues>
            -4.9362263083457947e-001 3.8739937543869019e-001</leafValues></_>
        <_>
          <internalNodes>
            0 -1 63 2.6689801365137100e-002</internalNodes>
          <leafValues>
            1.5844687819480896e-001 -9.0912514925003052e-001</leafValues></_>
        <_>
          <internalNodes>
            0 -1 67 -4.0882021188735962e-002</internalNodes>
          <leafValues>
            -9.3638586997985840e-001 1.9929897785186768e-001</leafValues></_>
        <_>
          <internalNodes>
            0 -1 43 -2.0606601610779762e-003</internalNodes>
          <leafValues>
            5.9652388095855713e-001 -2.9505607485771179e-001</leafValues></_>
        <_>
          <internalNodes>
            0 -1 2 -6.1944676563143730e-003</internalNodes>
          <leafValues>
            4.3923160433769226e-001 -3.7102153897285461e-001</leafValues></_>
        <_>
          <internalNodes>
            0 -1 1 -4.1182831046171486e-004</internalNodes>
          <leafValues>
            -6.4340388774871826e-001 2.6116937398910522e-001</leafValues></_></weakClassifiers></_>
    <!-- stage 11 -->
    <_>
      <maxWeakCount>8</maxWeakCount>
      <stageThreshold>-1.5608632564544678e+000</stageThreshold>
      <weakClassifiers>
        <_>
          <internalNodes>
            0 -1 8 -5.7113622315227985e-003</internalNodes>
          <leafValues>
            5.4166668653488159e-001 -7.6941555738449097e-001</leafValues></_>
        <_>
          <internalNodes>
            0 -1 9 3.6667766980826855e-003</internalNodes>
          <leafValues>
            -4.3481859564781189e-001 4.9708437919616699e-001</leafValues></_>
        <_>
          <internalNodes>
            0 -1 85 3.5236869007349014e-003</internalNodes>
          <leafValues>
            -2.4581313133239746e-001 5.8371478319168091e-001</leafValues></_>
        <_>
          <internalNodes>
            0 -1 84 -2.9005296528339386e-003</internalNodes>
          <leafValues>
            5.3461813926696777e-001 -2.7945879101753235e-001</leafValues></_>
        <_>
          <internalNodes>
            0 -1 38 -2.1258424967527390e-003</internalNodes>
          <leafValues>
            -8.3118665218353271e-001 1.8693511188030243e-001</leafValues></_>
        <_>
          <internalNodes>
            0 -1 16 9.0597604867070913e-004</internalNodes>
          <leafValues>
            -3.7185418605804443e-001 3.8095462322235107e-001</leafValues></_>
        <_>
          <internalNodes>
            0 -1 12 -3.6055627278983593e-003</internalNodes>
          <leafValues>
            3.1706339120864868e-001 -4.4043281674385071e-001</leafValues></_>
        <_>
          <internalNodes>
            0 -1 53 4.0359218837693334e-004</internalNodes>
          <leafValues>
            1.7830687761306763e-001 -7.0681071281433105e-001</leafValues></_></weakClassifiers></_>
    <!-- stage 12 -->
    <_>
      <maxWeakCount>10</maxWeakCount>
      <stageThreshold>-1.7726727724075317e+000</stageThreshold>
      <weakClassifiers>
        <_>
          <internalNodes>
            0 -1 71 -1.1106608435511589e-002</internalNodes>
          <leafValues>
            4.4444444775581360e-001 -7.7152049541473389e-001</leafValues></_>
        <_>
          <internalNodes>
            0 -1 21 -3.9194654673337936e-003</internalNodes>
          <leafValues>
            2.1096885204315186e-001 -5.5567973852157593e-001</leafValues></_>
        <_>
          <internalNodes>
            0 -1 73 1.1953840730711818e-003</internalNodes>
          <leafValues>
            -3.2392036914825439e-001 5.7657766342163086e-001</leafValues></_>
        <_>
          <internalNodes>
            0 -1 39 -8.4972992539405823e-002</internalNodes>
          <leafValues>
            -9.7706031799316406e-001 1.5310548245906830e-001</leafValues></_>
        <_>
          <internalNodes>
            0 -1 48 3.6659434437751770e-002</internalNodes>
          <leafValues>
            1.7494603991508484e-001 -9.4067209959030151e-001</leafValues></_>
        <_>
          <internalNodes>
            0 -1 5 -1.6627807170152664e-002</internalNodes>
          <leafValues>
            5.2743655443191528e-001 -2.9148849844932556e-001</leafValues></_>
        <_>
          <internalNodes>
            0 -1 44 -7.6132602989673615e-003</internalNodes>
          <leafValues>
            3.3725029230117798e-001 -4.2943710088729858e-001</leafValues></_>
        <_>
          <internalNodes>
            0 -1 25 -1.0539950802922249e-002</internalNodes>
          <leafValues>
            5.3616636991500854e-001 -2.4892969429492950e-001</leafValues></_>
        <_>
          <internalNodes>
            0 -1 62 3.4687464358285069e-004</internalNodes>
          <leafValues>
            -3.5713118314743042e-001 3.6987027525901794e-001</leafValues></_>
        <_>
          <internalNodes>
            0 -1 46 7.0419569965451956e-004</internalNodes>
          <leafValues>
            1.5038138628005981e-001 -9.3005597591400146e-001</leafValues></_></weakClassifiers></_>
    <!-- stage 13 -->
    <_>
      <maxWeakCount>10</maxWeakCount>
      <stageThreshold>-1.9242392778396606e+000</stageThreshold>
      <weakClassifiers>
        <_>
          <internalNodes>
            0 -1 57 -1.4485234394669533e-002</internalNodes>
          <leafValues>
            6.8421053886413574e-001 -7.6330423355102539e-001</leafValues></_>
        <_>
          <internalNodes>
            0 -1 60 -6.5157050266861916e-003</internalNodes>
          <leafValues>
            5.8821898698806763e-001 -3.9007574319839478e-001</leafValues></_>
        <_>
          <internalNodes>
            0 -1 58 2.6866612024605274e-003</internalNodes>
          <leafValues>
            -3.2231214642524719e-001 4.2180615663528442e-001</leafValues></_>
        <_>
          <internalNodes>
            0 -1 91 2.1019740961492062e-003</internalNodes>
          <leafValues>
            -2.0193678140640259e-001 6.4552712440490723e-001</leafValues></_>
        <_>
          <internalNodes>
            0 -1 10 1.6069167759269476e-003</internalNodes>
          <leafValues>
            -2.7335906028747559e-001 4.6200034022331238e-001</leafValues></_>
        <_>
          <internalNodes>
            0 -1 87 -6.1160483164712787e-004</internalNodes>
          <leafValues>
            -9.5533090829849243e-001 1.4004611968994141e-001</leafValues></_>
        <_>
          <internalNodes>
            0 -1 32 4.5716008171439171e-003</internalNodes>
          <leafValues>
            -2.3483338952064514e-001 5.9751570224761963e-001</leafValues></_>
        <_>
          <internalNodes>
            0 -1 90 -3.2463178504258394e-003</internalNodes>
          <leafValues>
            3.9104756712913513e-001 -3.7506315112113953e-001</leafValues></_>
        <_>
          <internalNodes>
            0 -1 14 4.1953586041927338e-003</internalNodes>
          <leafValues>
            -2.0569078624248505e-001 7.4042135477066040e-001</leafValues></_>
        <_>
          <internalNodes>
            0 -1 47 -7.3213176801800728e-004</internalNodes>
          <leafValues>
            -8.7417751550674438e-001 1.8560953438282013e-001</leafValues></_></weakClassifiers></_></stages>
  <features>
    <_>
      <rects>
        <_>
          0 0 22 2 -1.</_>
        <_>
          0 1 22 1 2.</_></rects>
      <tilted>0</tilted></_>
    <_>
      <rects>
        <_>
          0 2 22 19 -1.</_>
        <_>
          11 2 11 19 2.</_></rects>
      <tilted>0</tilted></_>
    <_>
      <rects>
        <_>
          0 6 6 10 -1.</_>
        <_>
          3 6 3 10 2.</_></rects>
      <tilted>0</tilted></_>
    <_>
      <rects>
        <_>
          0 11 16 4 -1.</_>
        <_>
          8 11 8 4 2.</_></rects>
      <tilted>0</tilted></_>
    <_>
      <rects>
        <_>
          1 0 36 4 -1.</_>
        <_>
          1 2 36 2 2.</_></rects>
      <tilted>0</tilted></_>
    <_>
      <rects>
        <_>
          1 7 6 11 -1.</_>
        <_>
          3 7 2 11 3.</_></rects>
      <tilted>0</tilted></_>
    <_>
      <rects>
        <_>
          2 10 28 8 -1.</_>
        <_>
          16 10 14 8 2.</_></rects>
      <tilted>0</tilted></_>
    <_>
      <rects>
        <_>
          3 0 15 9 -1.</_>
        <_>
          8 0 5 9 3.</_></rects>
      <tilted>0</tilted></_>
    <_>
      <rects>
        <_>
          3 9 3 2 -1.</_>
        <_>
          4 9 1 2 3.</_></rects>
      <tilted>0</tilted></_>
    <_>
      <rects>
        <_>
          3 10 3 5 -1.</_>
        <_>
          4 10 1 5 3.</_></rects>
      <tilted>0</tilted></_>
    <_>
      <rects>
        <_>
          4 0 6 2 -1.</_>
        <_>
          4 1 6 1 2.</_></rects>
      <tilted>0</tilted></_>
    <_>
      <rects>
        <_>
          4 5 3 11 -1.</_>
        <_>
          5 5 1 11 3.</_></rects>
      <tilted>0</tilted></_>
    <_>
      <rects>
        <_>
          4 10 18 2 -1.</_>
        <_>
          10 10 6 2 3.</_></rects>
      <tilted>0</tilted></_>
    <_>
      <rects>
        <_>
          5 8 30 5 -1.</_>
        <_>
          20 8 15 5 2.</_></rects>
      <tilted>0</tilted></_>
    <_>
      <rects>
        <_>
          6 11 3 2 -1.</_>
        <_>
          7 11 1 2 3.</_></rects>
      <tilted>0</tilted></_>
    <_>
      <rects>
        <_>
          7 0 21 12 -1.</_>
        <_>
          14 0 7 12 3.</_></rects>
      <tilted>0</tilted></_>
    <_>
      <rects>
        <_>
          7 3 9 3 -1.</_>
        <_>
          10 3 3 3 3.</_></rects>
      <tilted>0</tilted></_>
    <_>
      <rects>
        <_>
          7 7 2 10 -1.</_>
        <_>
          8 7 1 10 2.</_></rects>
      <tilted>0</tilted></_>
    <_>
      <rects>
        <_>
          7 10 3 3 -1.</_>
        <_>
          8 10 1 3 3.</_></rects>
      <tilted>0</tilted></_>
    <_>
      <rects>
        <_>
          8 11 3 1 -1.</_>
        <_>
          9 11 1 1 3.</_></rects>
      <tilted>0</tilted></_>
    <_>
      <rects>
        <_>
          8 18 24 6 -1.</_>
        <_>
          8 21 24 3 2.</_></rects>
      <tilted>0</tilted></_>
    <_>
      <rects>
        <_>
          8 22 27 2 -1.</_>
        <_>
          8 23 27 1 2.</_></rects>
      <tilted>0</tilted></_>
    <_>
      <rects>
        <_>
          9 8 18 8 -1.</_>
        <_>
          15 8 6 8 3.</_></rects>
      <tilted>0</tilted></_>
    <_>
      <rects>
        <_>
          9 10 3 3 -1.</_>
        <_>
          10 10 1 3 3.</_></rects>
      <tilted>0</tilted></_>
    <_>
      <rects>
        <_>
          9 11 3 5 -1.</_>
        <_>
          10 11 1 5 3.</_></rects>
      <tilted>0</tilted></_>
    <_>
      <rects>
        <_>
          9 18 14 4 -1.</_>
        <_>
          9 18 7 2 2.</_>
        <_>
          16 20 7 2 2.</_></rects>
      <tilted>0</tilted></_>
    <_>
      <rects>
        <_>
          10 8 3 7 -1.</_>
        <_>
          11 8 1 7 3.</_></rects>
      <tilted>0</tilted></_>
    <_>
      <rects>
        <_>
          10 9 3 4 -1.</_>
        <_>
          11 9 1 4 3.</_></rects>
      <tilted>0</tilted></_>
    <_>
      <rects>
        <_>
          10 9 9 9 -1.</_>
        <_>
          13 9 3 9 3.</_></rects>
      <tilted>0</tilted></_>
    <_>
      <rects>
        <_>
          11 0 3 2 -1.</_>
        <_>
          12 0 1 2 3.</_></rects>
      <tilted>0</tilted></_>
    <_>
      <rects>
        <_>
          11 0 3 3 -1.</_>
        <_>
          12 0 1 3 3.</_></rects>
      <tilted>0</tilted></_>
    <_>
      <rects>
        <_>
          11 0 6 4 -1.</_>
        <_>
          13 0 2 4 3.</_></rects>
      <tilted>0</tilted></_>
    <_>
      <rects>
        <_>
          11 4 2 16 -1.</_>
        <_>
          11 4 1 8 2.</_>
        <_>
          12 12 1 8 2.</_></rects>
      <tilted>0</tilted></_>
    <_>
      <rects>
        <_>
          12 0 3 3 -1.</_>
        <_>
          13 0 1 3 3.</_></rects>
      <tilted>0</tilted></_>
    <_>
      <rects>
        <_>
          12 1 3 6 -1.</_>
        <_>
          12 3 3 2 3.</_></rects>
      <tilted>0</tilted></_>
    <_>
      <rects>
        <_>
          12 20 18 4 -1.</_>
        <_>
          12 22 18 2 2.</_></rects>
      <tilted>0</tilted></_>
    <_>
      <rects>
        <_>
          13 0 3 4 -1.</_>
        <_>
          14 0 1 4 3.</_></rects>
      <tilted>0</tilted></_>
    <_>
      <rects>
        <_>
          13 0 6 3 -1.</_>
        <_>
          15 0 2 3 3.</_></rects>
      <tilted>0</tilted></_>
    <_>
      <rects>
        <_>
          13 0 6 5 -1.</_>
        <_>
          15 0 2 5 3.</_></rects>
      <tilted>0</tilted></_>
    <_>
      <rects>
        <_>
          13 0 27 12 -1.</_>
        <_>
          22 0 9 12 3.</_></rects>
      <tilted>0</tilted></_>
    <_>
      <rects>
        <_>
          13 6 9 11 -1.</_>
        <_>
          16 6 3 11 3.</_></rects>
      <tilted>0</tilted></_>
    <_>
      <rects>
        <_>
          13 7 9 10 -1.</_>
        <_>
          16 7 3 10 3.</_></rects>
      <tilted>0</tilted></_>
    <_>
      <rects>
        <_>
          13 7 9 11 -1.</_>
        <_>
          16 7 3 11 3.</_></rects>
      <tilted>0</tilted></_>
    <_>
      <rects>
        <_>
          13 8 1 6 -1.</_>
        <_>
          13 10 1 2 3.</_></rects>
      <tilted>0</tilted></_>
    <_>
      <rects>
        <_>
          14 6 12 4 -1.</_>
        <_>
          20 6 6 4 2.</_></rects>
      <tilted>0</tilted></_>
    <_>
      <rects>
        <_>
          15 18 9 6 -1.</_>
        <_>
          15 21 9 3 2.</_></rects>
      <tilted>0</tilted></_>
    <_>
      <rects>
        <_>
          15 22 3 2 -1.</_>
        <_>
          16 22 1 2 3.</_></rects>
      <tilted>0</tilted></_>
    <_>
      <rects>
        <_>
          16 0 3 6 -1.</_>
        <_>
          17 0 1 6 3.</_></rects>
      <tilted>0</tilted></_>
    <_>
      <rects>
        <_>
          16 0 24 13 -1.</_>
        <_>
          24 0 8 13 3.</_></rects>
      <tilted>0</tilted></_>
    <_>
      <rects>
        <_>
          16 5 6 8 -1.</_>
        <_>
          19 5 3 8 2.</_></rects>
      <tilted>0</tilted></_>
    <_>
      <rects>
        <_>
          17 0 3 2 -1.</_>
        <_>
          18 0 1 2 3.</_></rects>
      <tilted>0</tilted></_>
    <_>
      <rects>
        <_>
          17 0 3 3 -1.</_>
        <_>
          18 0 1 3 3.</_></rects>
      <tilted>0</tilted></_>
    <_>
      <rects>
        <_>
          17 0 2 15 -1.</_>
        <_>
          17 5 2 5 3.</_></rects>
      <tilted>0</tilted></_>
    <_>
      <rects>
        <_>
          17 7 2 2 -1.</_>
        <_>
          17 8 2 1 2.</_></rects>
      <tilted>0</tilted></_>
    <_>
      <rects>
        <_>
          17 21 3 2 -1.</_>
        <_>
          18 21 1 2 3.</_></rects>
      <tilted>0</tilted></_>
    <_>
      <rects>
        <_>
          18 18 4 5 -1.</_>
        <_>
          20 18 2 5 2.</_></rects>
      <tilted>0</tilted></_>
    <_>
      <rects>
        <_>
          18 22 3 2 -1.</_>
        <_>
          19 22 1 2 3.</_></rects>
      <tilted>0</tilted></_>
    <_>
      <rects>
        <_>
          20 9 3 4 -1.</_>
        <_>
          21 9 1 4 3.</_></rects>
      <tilted>0</tilted></_>
    <_>
      <rects>
        <_>
          21 4 3 8 -1.</_>
        <_>
          22 4 1 8 3.</_></rects>
      <tilted>0</tilted></_>
    <_>
      <rects>
        <_>
          21 6 3 8 -1.</_>
        <_>
          22 6 1 8 3.</_></rects>
      <tilted>0</tilted></_>
    <_>
      <rects>
        <_>
          21 10 3 6 -1.</_>
        <_>
          22 10 1 6 3.</_></rects>
      <tilted>0</tilted></_>
    <_>
      <rects>
        <_>
          21 11 3 5 -1.</_>
        <_>
          22 11 1 5 3.</_></rects>
      <tilted>0</tilted></_>
    <_>
      <rects>
        <_>
          21 16 3 2 -1.</_>
        <_>
          22 16 1 2 3.</_></rects>
      <tilted>0</tilted></_>
    <_>
      <rects>
        <_>
          22 2 10 22 -1.</_>
        <_>
          27 2 5 22 2.</_></rects>
      <tilted>0</tilted></_>
    <_>
      <rects>
        <_>
          22 6 3 5 -1.</_>
        <_>
          23 6 1 5 3.</_></rects>
      <tilted>0</tilted></_>
    <_>
      <rects>
        <_>
          22 6 3 7 -1.</_>
        <_>
          23 6 1 7 3.</_></rects>
      <tilted>0</tilted></_>
    <_>
      <rects>
        <_>
          22 13 3 1 -1.</_>
        <_>
          23 13 1 1 3.</_></rects>
      <tilted>0</tilted></_>
    <_>
      <rects>
        <_>
          23 1 10 20 -1.</_>
        <_>
          28 1 5 20 2.</_></rects>
      <tilted>0</tilted></_>
    <_>
      <rects>
        <_>
          23 5 3 6 -1.</_>
        <_>
          24 5 1 6 3.</_></rects>
      <tilted>0</tilted></_>
    <_>
      <rects>
        <_>
          23 12 3 3 -1.</_>
        <_>
          24 12 1 3 3.</_></rects>
      <tilted>0</tilted></_>
    <_>
      <rects>
        <_>
          24 9 3 3 -1.</_>
        <_>
          25 9 1 3 3.</_></rects>
      <tilted>0</tilted></_>
    <_>
      <rects>
        <_>
          25 6 3 4 -1.</_>
        <_>
          26 6 1 4 3.</_></rects>
      <tilted>0</tilted></_>
    <_>
      <rects>
        <_>
          25 6 3 5 -1.</_>
        <_>
          26 6 1 5 3.</_></rects>
      <tilted>0</tilted></_>
    <_>
      <rects>
        <_>
          25 9 3 1 -1.</_>
        <_>
          26 9 1 1 3.</_></rects>
      <tilted>0</tilted></_>
    <_>
      <rects>
        <_>
          26 5 3 9 -1.</_>
        <_>
          27 5 1 9 3.</_></rects>
      <tilted>0</tilted></_>
    <_>
      <rects>
        <_>
          26 12 3 1 -1.</_>
        <_>
          27 12 1 1 3.</_></rects>
      <tilted>0</tilted></_>
    <_>
      <rects>
        <_>
          26 13 3 1 -1.</_>
        <_>
          27 13 1 1 3.</_></rects>
      <tilted>0</tilted></_>
    <_>
      <rects>
        <_>
          26 14 3 2 -1.</_>
        <_>
          27 14 1 2 3.</_></rects>
      <tilted>0</tilted></_>
    <_>
      <rects>
        <_>
          27 10 3 6 -1.</_>
        <_>
          28 10 1 6 3.</_></rects>
      <tilted>0</tilted></_>
    <_>
      <rects>
        <_>
          27 11 3 8 -1.</_>
        <_>
          28 11 1 8 3.</_></rects>
      <tilted>0</tilted></_>
    <_>
      <rects>
        <_>
          28 6 3 7 -1.</_>
        <_>
          29 6 1 7 3.</_></rects>
      <tilted>0</tilted></_>
    <_>
      <rects>
        <_>
          28 10 3 4 -1.</_>
        <_>
          29 10 1 4 3.</_></rects>
      <tilted>0</tilted></_>
    <_>
      <rects>
        <_>
          29 9 3 5 -1.</_>
        <_>
          30 9 1 5 3.</_></rects>
      <tilted>0</tilted></_>
    <_>
      <rects>
        <_>
          29 11 3 1 -1.</_>
        <_>
          30 11 1 1 3.</_></rects>
      <tilted>0</tilted></_>
    <_>
      <rects>
        <_>
          30 6 2 12 -1.</_>
        <_>
          31 6 1 12 2.</_></rects>
      <tilted>0</tilted></_>
    <_>
      <rects>
        <_>
          30 11 3 5 -1.</_>
        <_>
          31 11 1 5 3.</_></rects>
      <tilted>0</tilted></_>
    <_>
      <rects>
        <_>
          32 9 3 8 -1.</_>
        <_>
          33 9 1 8 3.</_></rects>
      <tilted>0</tilted></_>
    <_>
      <rects>
        <_>
          32 22 3 2 -1.</_>
        <_>
          33 22 1 2 3.</_></rects>
      <tilted>0</tilted></_>
    <_>
      <rects>
        <_>
          33 4 3 17 -1.</_>
        <_>
          34 4 1 17 3.</_></rects>
      <tilted>0</tilted></_>
    <_>
      <rects>
        <_>
          33 5 3 15 -1.</_>
        <_>
          34 5 1 15 3.</_></rects>
      <tilted>0</tilted></_>
    <_>
      <rects>
        <_>
          34 1 6 16 -1.</_>
        <_>
          36 1 2 16 3.</_></rects>
      <tilted>0</tilted></_>
    <_>
      <rects>
        <_>
          34 9 3 2 -1.</_>
        <_>
          35 9 1 2 3.</_></rects>
      <tilted>0</tilted></_>
    <_>
      <rects>
        <_>
          37 10 3 1 -1.</_>
        <_>
          38 10 1 1 3.</_></rects>
      <tilted>0</tilted></_></features></cascade>
</opencv_storage>
