<?xml version="1.0"?>
<opencv_storage>
<cascade>
  <stageType>BOOST</stageType>
  <featureType>HAAR</featureType>
  <height>14</height>
  <width>40</width>
  <stageParams>
    <boostType>GAB</boostType>
    <minHitRate>9.9500000476837158e-001</minHitRate>
    <maxFalseAlarm>3.0000001192092896e-001</maxFalseAlarm>
    <weightTrimRate>9.4999998807907104e-001</weightTrimRate>
    <maxDepth>1</maxDepth>
    <maxWeakCount>100</maxWeakCount></stageParams>
  <featureParams>
    <maxCatCount>0</maxCatCount>
    <featSize>1</featSize>
    <mode>ALL</mode></featureParams>
  <stageNum>10</stageNum>
  <stages>
    <!-- stage 0 -->
    <_>
      <maxWeakCount>7</maxWeakCount>
      <stageThreshold>-1.5351371765136719e+000</stageThreshold>
      <weakClassifiers>
        <_>
          <internalNodes>
            0 -1 55 -1.2942664325237274e-001</internalNodes>
          <leafValues>
            8.6607140302658081e-001 -6.6940450668334961e-001</leafValues></_>
        <_>
          <internalNodes>
            0 -1 70 -3.0090130865573883e-002</internalNodes>
          <leafValues>
            5.2520942687988281e-001 -6.5596026182174683e-001</leafValues></_>
        <_>
          <internalNodes>
            0 -1 132 -1.0164475068449974e-002</internalNodes>
          <leafValues>
            6.2720346450805664e-001 -5.5070638656616211e-001</leafValues></_>
        <_>
          <internalNodes>
            0 -1 15 -1.0662393271923065e-001</internalNodes>
          <leafValues>
            6.3474225997924805e-001 -3.9930123090744019e-001</leafValues></_>
        <_>
          <internalNodes>
            0 -1 72 2.2146515548229218e-003</internalNodes>
          <leafValues>
            -7.3746615648269653e-001 3.7006720900535583e-001</leafValues></_>
        <_>
          <internalNodes>
            0 -1 26 8.8083622977137566e-003</internalNodes>
          <leafValues>
            -3.5408267378807068e-001 5.8246588706970215e-001</leafValues></_>
        <_>
          <internalNodes>
            0 -1 63 -1.2909335084259510e-002</internalNodes>
          <leafValues>
            6.5061438083648682e-001 -3.4509918093681335e-001</leafValues></_></weakClassifiers></_>
    <!-- stage 1 -->
    <_>
      <maxWeakCount>8</maxWeakCount>
      <stageThreshold>-1.5498009920120239e+000</stageThreshold>
      <weakClassifiers>
        <_>
          <internalNodes>
            0 -1 74 -4.2972706258296967e-002</internalNodes>
          <leafValues>
            7.4358975887298584e-001 -7.1459460258483887e-001</leafValues></_>
        <_>
          <internalNodes>
            0 -1 11 1.8236597999930382e-002</internalNodes>
          <leafValues>
            -4.1842231154441833e-001 6.8036979436874390e-001</leafValues></_>
        <_>
          <internalNodes>
            0 -1 10 3.9665840566158295e-002</internalNodes>
          <leafValues>
            -7.0892906188964844e-001 2.7135294675827026e-001</leafValues></_>
        <_>
          <internalNodes>
            0 -1 117 -6.5656136721372604e-003</internalNodes>
          <leafValues>
            5.6726706027984619e-001 -3.4561353921890259e-001</leafValues></_>
        <_>
          <internalNodes>
            0 -1 89 -3.2017715275287628e-002</internalNodes>
          <leafValues>
            8.7572252750396729e-001 -2.4614705145359039e-001</leafValues></_>
        <_>
          <internalNodes>
            0 -1 82 1.7130970954895020e-002</internalNodes>
          <leafValues>
            -2.0381622016429901e-001 7.5855624675750732e-001</leafValues></_>
        <_>
          <internalNodes>
            0 -1 129 2.3071020841598511e-003</internalNodes>
          <leafValues>
            -3.6355939507484436e-001 4.8195335268974304e-001</leafValues></_>
        <_>
          <internalNodes>
            0 -1 125 1.8397176172584295e-003</internalNodes>
          <leafValues>
            -4.9137336015701294e-001 3.1766659021377563e-001</leafValues></_></weakClassifiers></_>
    <!-- stage 2 -->
    <_>
      <maxWeakCount>11</maxWeakCount>
      <stageThreshold>-9.1531127691268921e-001</stageThreshold>
      <weakClassifiers>
        <_>
          <internalNodes>
            0 -1 88 5.3319208323955536e-002</internalNodes>
          <leafValues>
            -6.4767932891845703e-001 6.2400001287460327e-001</leafValues></_>
        <_>
          <internalNodes>
            0 -1 20 -1.2707872316241264e-002</internalNodes>
          <leafValues>
            2.2117599844932556e-001 -6.9583541154861450e-001</leafValues></_>
        <_>
          <internalNodes>
            0 -1 39 -8.7247537449002266e-003</internalNodes>
          <leafValues>
            6.2766373157501221e-001 -2.9566195607185364e-001</leafValues></_>
        <_>
          <internalNodes>
            0 -1 87 -1.3141512870788574e-002</internalNodes>
          <leafValues>
            3.7971565127372742e-001 -4.6991404891014099e-001</leafValues></_>
        <_>
          <internalNodes>
            0 -1 131 -2.7335561811923981e-002</internalNodes>
          <leafValues>
            5.6564658880233765e-001 -2.7117064595222473e-001</leafValues></_>
        <_>
          <internalNodes>
            0 -1 91 -3.1318891793489456e-002</internalNodes>
          <leafValues>
            4.5621746778488159e-001 -3.9638102054595947e-001</leafValues></_>
        <_>
          <internalNodes>
            0 -1 7 -1.6606669872999191e-002</internalNodes>
          <leafValues>
            -8.5987150669097900e-001 1.6724027693271637e-001</leafValues></_>
        <_>
          <internalNodes>
            0 -1 32 5.0344038754701614e-003</internalNodes>
          <leafValues>
            2.0663905143737793e-001 -7.2316217422485352e-001</leafValues></_>
        <_>
          <internalNodes>
            0 -1 122 -1.1774754151701927e-002</internalNodes>
          <leafValues>
            7.8217905759811401e-001 -2.0662170648574829e-001</leafValues></_>
        <_>
          <internalNodes>
            0 -1 121 -9.6447430551052094e-003</internalNodes>
          <leafValues>
            7.0517730712890625e-001 -2.2844468057155609e-001</leafValues></_>
        <_>
          <internalNodes>
            0 -1 77 -1.3597749173641205e-002</internalNodes>
          <leafValues>
            -6.9672137498855591e-001 2.7825489640235901e-001</leafValues></_></weakClassifiers></_>
    <!-- stage 3 -->
    <_>
      <maxWeakCount>12</maxWeakCount>
      <stageThreshold>-1.1384325027465820e+000</stageThreshold>
      <weakClassifiers>
        <_>
          <internalNodes>
            0 -1 54 -1.5509611368179321e-001</internalNodes>
          <leafValues>
            7.3056995868682861e-001 -5.9601992368698120e-001</leafValues></_>
        <_>
          <internalNodes>
            0 -1 68 -4.7518522478640079e-004</internalNodes>
          <leafValues>
            -6.9547075033187866e-001 1.7776298522949219e-001</leafValues></_>
        <_>
          <internalNodes>
            0 -1 112 -1.2976806610822678e-002</internalNodes>
          <leafValues>
            -6.8976086378097534e-001 1.8690253794193268e-001</leafValues></_>
        <_>
          <internalNodes>
            0 -1 13 8.2527138292789459e-003</internalNodes>
          <leafValues>
            -3.9205288887023926e-001 3.6500707268714905e-001</leafValues></_>
        <_>
          <internalNodes>
            0 -1 111 1.9487827084958553e-003</internalNodes>
          <leafValues>
            1.6121327877044678e-001 -8.9029633998870850e-001</leafValues></_>
        <_>
          <internalNodes>
            0 -1 68 5.0213228678330779e-004</internalNodes>
          <leafValues>
            1.7497999966144562e-001 -6.4508068561553955e-001</leafValues></_>
        <_>
          <internalNodes>
            0 -1 44 -1.7460053786635399e-002</internalNodes>
          <leafValues>
            -7.8960502147674561e-001 1.5661361813545227e-001</leafValues></_>
        <_>
          <internalNodes>
            0 -1 29 -2.9439642094075680e-003</internalNodes>
          <leafValues>
            4.7194615006446838e-001 -3.3092510700225830e-001</leafValues></_>
        <_>
          <internalNodes>
            0 -1 16 -3.6259621381759644e-002</internalNodes>
          <leafValues>
            3.5987168550491333e-001 -3.4726777672767639e-001</leafValues></_>
        <_>
          <internalNodes>
            0 -1 14 3.2375432550907135e-002</internalNodes>
          <leafValues>
            -4.5514136552810669e-001 2.6646071672439575e-001</leafValues></_>
        <_>
          <internalNodes>
            0 -1 96 -7.9001858830451965e-003</internalNodes>
          <leafValues>
            6.5897220373153687e-001 -2.2526843845844269e-001</leafValues></_>
        <_>
          <internalNodes>
            0 -1 95 -1.4036554843187332e-002</internalNodes>
          <leafValues>
            8.0065816640853882e-001 -1.5002089738845825e-001</leafValues></_></weakClassifiers></_>
    <!-- stage 4 -->
    <_>
      <maxWeakCount>13</maxWeakCount>
      <stageThreshold>-1.2877312898635864e+000</stageThreshold>
      <weakClassifiers>
        <_>
          <internalNodes>
            0 -1 74 -5.4040752351284027e-002</internalNodes>
          <leafValues>
            5.2205884456634521e-001 -6.4794814586639404e-001</leafValues></_>
        <_>
          <internalNodes>
            0 -1 4 -1.1296510696411133e-002</internalNodes>
          <leafValues>
            5.1974219083786011e-001 -3.5324105620384216e-001</leafValues></_>
        <_>
          <internalNodes>
            0 -1 128 1.3804165646433830e-002</internalNodes>
          <leafValues>
            -3.9013364911079407e-001 3.2578137516975403e-001</leafValues></_>
        <_>
          <internalNodes>
            0 -1 113 3.0716046690940857e-002</internalNodes>
          <leafValues>
            1.4844956994056702e-001 -8.7517279386520386e-001</leafValues></_>
        <_>
          <internalNodes>
            0 -1 104 2.5227125734090805e-002</internalNodes>
          <leafValues>
            1.6087737679481506e-001 -8.4406352043151855e-001</leafValues></_>
        <_>
          <internalNodes>
            0 -1 115 -2.6555417105555534e-002</internalNodes>
          <leafValues>
            5.3878808021545410e-001 -2.6206207275390625e-001</leafValues></_>
        <_>
          <internalNodes>
            0 -1 110 -1.7096053808927536e-002</internalNodes>
          <leafValues>
            -7.6363652944564819e-001 1.5111324191093445e-001</leafValues></_>
        <_>
          <internalNodes>
            0 -1 86 -9.8417801782488823e-003</internalNodes>
          <leafValues>
            5.8361661434173584e-001 -2.1177403628826141e-001</leafValues></_>
        <_>
          <internalNodes>
            0 -1 81 -5.2930399775505066e-002</internalNodes>
          <leafValues>
            8.9259237051010132e-001 -1.5220409631729126e-001</leafValues></_>
        <_>
          <internalNodes>
            0 -1 81 2.2458408027887344e-002</internalNodes>
          <leafValues>
            -2.2967103123664856e-001 6.2346863746643066e-001</leafValues></_>
        <_>
          <internalNodes>
            0 -1 120 -1.0694880038499832e-002</internalNodes>
          <leafValues>
            -6.3970476388931274e-001 2.3136526346206665e-001</leafValues></_>
        <_>
          <internalNodes>
            0 -1 94 -8.7839709594845772e-003</internalNodes>
          <leafValues>
            6.1082959175109863e-001 -2.1404677629470825e-001</leafValues></_>
        <_>
          <internalNodes>
            0 -1 90 -2.3379689082503319e-003</internalNodes>
          <leafValues>
            6.7733603715896606e-001 -1.8201652169227600e-001</leafValues></_></weakClassifiers></_>
    <!-- stage 5 -->
    <_>
      <maxWeakCount>18</maxWeakCount>
      <stageThreshold>-1.2827777862548828e+000</stageThreshold>
      <weakClassifiers>
        <_>
          <internalNodes>
            0 -1 48 -1.5666727721691132e-001</internalNodes>
          <leafValues>
            4.7368422150611877e-001 -6.4950710535049438e-001</leafValues></_>
        <_>
          <internalNodes>
            0 -1 69 -1.2739100493490696e-003</internalNodes>
          <leafValues>
            -8.6890476942062378e-001 8.4119103848934174e-002</leafValues></_>
        <_>
          <internalNodes>
            0 -1 84 -1.0035734158009291e-003</internalNodes>
          <leafValues>
            -7.4872994422912598e-001 1.4727294445037842e-001</leafValues></_>
        <_>
          <internalNodes>
            0 -1 103 -4.5574467629194260e-002</internalNodes>
          <leafValues>
            6.4592301845550537e-001 -2.4923512339591980e-001</leafValues></_>
        <_>
          <internalNodes>
            0 -1 36 4.2234053835272789e-003</internalNodes>
          <leafValues>
            -4.2414620518684387e-001 3.0032277107238770e-001</leafValues></_>
        <_>
          <internalNodes>
            0 -1 60 -1.3156591914594173e-002</internalNodes>
          <leafValues>
            5.1224356889724731e-001 -2.3416794836521149e-001</leafValues></_>
        <_>
          <internalNodes>
            0 -1 45 4.2897954583168030e-002</internalNodes>
          <leafValues>
            1.1638777703046799e-001 -8.9750552177429199e-001</leafValues></_>
        <_>
          <internalNodes>
            0 -1 76 -9.1664627194404602e-002</internalNodes>
          <leafValues>
            8.6444258689880371e-001 -1.3254244625568390e-001</leafValues></_>
        <_>
          <internalNodes>
            0 -1 79 8.3412881940603256e-003</internalNodes>
          <leafValues>
            -1.6059963405132294e-001 6.3954347372055054e-001</leafValues></_>
        <_>
          <internalNodes>
            0 -1 97 -8.8549236534163356e-004</internalNodes>
          <leafValues>
            -6.2483388185501099e-001 1.9119355082511902e-001</leafValues></_>
        <_>
          <internalNodes>
            0 -1 102 -1.0523933451622725e-003</internalNodes>
          <leafValues>
            -6.9191473722457886e-001 1.4599691331386566e-001</leafValues></_>
        <_>
          <internalNodes>
            0 -1 33 -1.2975913286209106e-001</internalNodes>
          <leafValues>
            3.0940091609954834e-001 -3.4692418575286865e-001</leafValues></_>
        <_>
          <internalNodes>
            0 -1 53 -5.2404282614588737e-003</internalNodes>
          <leafValues>
            -7.1068102121353149e-001 1.5391878783702850e-001</leafValues></_>
        <_>
          <internalNodes>
            0 -1 49 -1.3407658785581589e-002</internalNodes>
          <leafValues>
            -6.4335292577743530e-001 1.5330612659454346e-001</leafValues></_>
        <_>
          <internalNodes>
            0 -1 47 -1.0411783587187529e-003</internalNodes>
          <leafValues>
            -5.7235103845596313e-001 1.6719351708889008e-001</leafValues></_>
        <_>
          <internalNodes>
            0 -1 24 1.3218481093645096e-002</internalNodes>
          <leafValues>
            -2.3431715369224548e-001 4.8565924167633057e-001</leafValues></_>
        <_>
          <internalNodes>
            0 -1 42 -1.7176303081214428e-003</internalNodes>
          <leafValues>
            -8.8240420818328857e-001 1.3757319748401642e-001</leafValues></_>
        <_>
          <internalNodes>
            0 -1 40 6.9762300699949265e-003</internalNodes>
          <leafValues>
            -3.0391353368759155e-001 3.9454209804534912e-001</leafValues></_></weakClassifiers></_>
    <!-- stage 6 -->
    <_>
      <maxWeakCount>16</maxWeakCount>
      <stageThreshold>-1.2588244676589966e+000</stageThreshold>
      <weakClassifiers>
        <_>
          <internalNodes>
            0 -1 61 -1.5176823735237122e-001</internalNodes>
          <leafValues>
            6.3265305757522583e-001 -5.8083832263946533e-001</leafValues></_>
        <_>
          <internalNodes>
            0 -1 31 1.9919510930776596e-002</internalNodes>
          <leafValues>
            -3.8047876954078674e-001 3.9223882555961609e-001</leafValues></_>
        <_>
          <internalNodes>
            0 -1 25 -1.6556004062294960e-002</internalNodes>
          <leafValues>
            5.8308935165405273e-001 -2.4134957790374756e-001</leafValues></_>
        <_>
          <internalNodes>
            0 -1 80 2.2445958107709885e-002</internalNodes>
          <leafValues>
            -1.8812845647335052e-001 6.3611859083175659e-001</leafValues></_>
        <_>
          <internalNodes>
            0 -1 126 4.1788187809288502e-003</internalNodes>
          <leafValues>
            -3.7065887451171875e-001 3.4168308973312378e-001</leafValues></_>
        <_>
          <internalNodes>
            0 -1 98 -5.5831670761108398e-004</internalNodes>
          <leafValues>
            -6.3143092393875122e-001 1.8882064521312714e-001</leafValues></_>
        <_>
          <internalNodes>
            0 -1 23 -2.3564282804727554e-002</internalNodes>
          <leafValues>
            2.0155848562717438e-001 -6.6234171390533447e-001</leafValues></_>
        <_>
          <internalNodes>
            0 -1 52 1.0566233657300472e-002</internalNodes>
          <leafValues>
            -1.9959253072738647e-001 6.3887894153594971e-001</leafValues></_>
        <_>
          <internalNodes>
            0 -1 9 -1.4972339849919081e-003</internalNodes>
          <leafValues>
            2.3919495940208435e-001 -5.3553938865661621e-001</leafValues></_>
        <_>
          <internalNodes>
            0 -1 50 -1.3308594934642315e-003</internalNodes>
          <leafValues>
            -7.5830543041229248e-001 1.3969476521015167e-001</leafValues></_>
        <_>
          <internalNodes>
            0 -1 57 1.0388238355517387e-002</internalNodes>
          <leafValues>
            -2.8084164857864380e-001 4.4043576717376709e-001</leafValues></_>
        <_>
          <internalNodes>
            0 -1 56 -3.4566838294267654e-003</internalNodes>
          <leafValues>
            -6.7178946733474731e-001 1.9998085498809814e-001</leafValues></_>
        <_>
          <internalNodes>
            0 -1 65 -3.2882448285818100e-003</internalNodes>
          <leafValues>
            4.3032833933830261e-001 -2.9907190799713135e-001</leafValues></_>
        <_>
          <internalNodes>
            0 -1 66 3.6168852820992470e-003</internalNodes>
          <leafValues>
            -2.5907754898071289e-001 5.7770186662673950e-001</leafValues></_>
        <_>
          <internalNodes>
            0 -1 58 -9.8352180793881416e-003</internalNodes>
          <leafValues>
            -7.9975974559783936e-001 1.4323678612709045e-001</leafValues></_>
        <_>
          <internalNodes>
            0 -1 109 -1.4524238184094429e-002</internalNodes>
          <leafValues>
            8.9915585517883301e-001 -1.4543262124061584e-001</leafValues></_></weakClassifiers></_>
    <!-- stage 7 -->
    <_>
      <maxWeakCount>16</maxWeakCount>
      <stageThreshold>-1.0995241403579712e+000</stageThreshold>
      <weakClassifiers>
        <_>
          <internalNodes>
            0 -1 123 -2.2144481539726257e-002</internalNodes>
          <leafValues>
            4.9000000953674316e-001 -5.5711424350738525e-001</leafValues></_>
        <_>
          <internalNodes>
            0 -1 59 3.4299199469387531e-003</internalNodes>
          <leafValues>
            -5.0477004051208496e-001 2.3352670669555664e-001</leafValues></_>
        <_>
          <internalNodes>
            0 -1 124 6.3930591568350792e-003</internalNodes>
          <leafValues>
            -2.8828436136245728e-001 4.2684310674667358e-001</leafValues></_>
        <_>
          <internalNodes>
            0 -1 43 6.4569097012281418e-003</internalNodes>
          <leafValues>
            1.3733302056789398e-001 -7.9475563764572144e-001</leafValues></_>
        <_>
          <internalNodes>
            0 -1 30 -3.3780079334974289e-002</internalNodes>
          <leafValues>
            -7.7949357032775879e-001 1.3680875301361084e-001</leafValues></_>
        <_>
          <internalNodes>
            0 -1 1 -6.6851526498794556e-003</internalNodes>
          <leafValues>
            4.1744852066040039e-001 -2.5696796178817749e-001</leafValues></_>
        <_>
          <internalNodes>
            0 -1 5 -1.0056465864181519e-001</internalNodes>
          <leafValues>
            -8.0216777324676514e-001 1.4630962908267975e-001</leafValues></_>
        <_>
          <internalNodes>
            0 -1 19 -2.8329571709036827e-002</internalNodes>
          <leafValues>
            4.6379590034484863e-001 -2.5274595618247986e-001</leafValues></_>
        <_>
          <internalNodes>
            0 -1 92 -1.4591398648917675e-003</internalNodes>
          <leafValues>
            -7.9166674613952637e-001 1.2931641936302185e-001</leafValues></_>
        <_>
          <internalNodes>
            0 -1 18 -1.1846719309687614e-002</internalNodes>
          <leafValues>
            2.3791405558586121e-001 -4.1688743233680725e-001</leafValues></_>
        <_>
          <internalNodes>
            0 -1 28 8.7777599692344666e-003</internalNodes>
          <leafValues>
            -1.8211165070533752e-001 5.6838059425354004e-001</leafValues></_>
        <_>
          <internalNodes>
            0 -1 17 -1.5353608876466751e-002</internalNodes>
          <leafValues>
            -7.0383161306381226e-001 1.6996790468692780e-001</leafValues></_>
        <_>
          <internalNodes>
            0 -1 8 -9.9690817296504974e-003</internalNodes>
          <leafValues>
            5.8593559265136719e-001 -1.9753661751747131e-001</leafValues></_>
        <_>
          <internalNodes>
            0 -1 108 5.6828454136848450e-002</internalNodes>
          <leafValues>
            1.7362895607948303e-001 -6.7339950799942017e-001</leafValues></_>
        <_>
          <internalNodes>
            0 -1 119 2.8982531279325485e-002</internalNodes>
          <leafValues>
            1.1826894432306290e-001 -7.0569425821304321e-001</leafValues></_>
        <_>
          <internalNodes>
            0 -1 27 -4.2241834104061127e-002</internalNodes>
          <leafValues>
            -8.6348325014114380e-001 8.4250964224338531e-002</leafValues></_></weakClassifiers></_>
    <!-- stage 8 -->
    <_>
      <maxWeakCount>18</maxWeakCount>
      <stageThreshold>-1.1287978887557983e+000</stageThreshold>
      <weakClassifiers>
        <_>
          <internalNodes>
            0 -1 62 -5.4682627320289612e-002</internalNodes>
          <leafValues>
            5.1152074337005615e-001 -5.8002036809921265e-001</leafValues></_>
        <_>
          <internalNodes>
            0 -1 114 -4.1832823306322098e-002</internalNodes>
          <leafValues>
            4.5332568883895874e-001 -2.8835609555244446e-001</leafValues></_>
        <_>
          <internalNodes>
            0 -1 0 4.4703669846057892e-002</internalNodes>
          <leafValues>
            -2.4811942875385284e-001 4.3314936757087708e-001</leafValues></_>
        <_>
          <internalNodes>
            0 -1 106 -1.4359470224007964e-003</internalNodes>
          <leafValues>
            -7.8281408548355103e-001 1.2410961091518402e-001</leafValues></_>
        <_>
          <internalNodes>
            0 -1 12 4.3356768786907196e-002</internalNodes>
          <leafValues>
            1.2486333400011063e-001 -9.2040425539016724e-001</leafValues></_>
        <_>
          <internalNodes>
            0 -1 22 -7.2887828573584557e-003</internalNodes>
          <leafValues>
            -7.9134494066238403e-001 1.4483258128166199e-001</leafValues></_>
        <_>
          <internalNodes>
            0 -1 82 -2.4577641859650612e-002</internalNodes>
          <leafValues>
            6.1507475376129150e-001 -2.0721790194511414e-001</leafValues></_>
        <_>
          <internalNodes>
            0 -1 71 1.9663872197270393e-002</internalNodes>
          <leafValues>
            -1.5036655962467194e-001 6.0410422086715698e-001</leafValues></_>
        <_>
          <internalNodes>
            0 -1 41 3.1959721818566322e-003</internalNodes>
          <leafValues>
            -2.3511704802513123e-001 3.9762830734252930e-001</leafValues></_>
        <_>
          <internalNodes>
            0 -1 118 -4.7668199986219406e-003</internalNodes>
          <leafValues>
            -6.9658368825912476e-001 1.2490256130695343e-001</leafValues></_>
        <_>
          <internalNodes>
            0 -1 116 -1.4701853506267071e-003</internalNodes>
          <leafValues>
            -8.8529437780380249e-001 1.0930199176073074e-001</leafValues></_>
        <_>
          <internalNodes>
            0 -1 64 -1.3852871488779783e-003</internalNodes>
          <leafValues>
            2.7143335342407227e-001 -3.3636832237243652e-001</leafValues></_>
        <_>
          <internalNodes>
            0 -1 107 -3.6875650286674500e-002</internalNodes>
          <leafValues>
            -8.5081678628921509e-001 1.0774656385183334e-001</leafValues></_>
        <_>
          <internalNodes>
            0 -1 78 -9.8742984235286713e-002</internalNodes>
          <leafValues>
            8.4993016719818115e-001 -1.2552070617675781e-001</leafValues></_>
        <_>
          <internalNodes>
            0 -1 93 4.7121085226535797e-003</internalNodes>
          <leafValues>
            -3.5053357481956482e-001 2.7452436089515686e-001</leafValues></_>
        <_>
          <internalNodes>
            0 -1 85 9.5254852203652263e-004</internalNodes>
          <leafValues>
            1.4339861273765564e-001 -6.5127438306808472e-001</leafValues></_>
        <_>
          <internalNodes>
            0 -1 83 3.4685223363339901e-003</internalNodes>
          <leafValues>
            -1.6195851564407349e-001 6.4505153894424438e-001</leafValues></_>
        <_>
          <internalNodes>
            0 -1 75 -7.3586194775998592e-003</internalNodes>
          <leafValues>
            3.2474580407142639e-001 -3.0980241298675537e-001</leafValues></_></weakClassifiers></_>
    <!-- stage 9 -->
    <_>
      <maxWeakCount>18</maxWeakCount>
      <stageThreshold>-1.2253590822219849e+000</stageThreshold>
      <weakClassifiers>
        <_>
          <internalNodes>
            0 -1 127 -5.8493822813034058e-002</internalNodes>
          <leafValues>
            3.2857143878936768e-001 -5.9912854433059692e-001</leafValues></_>
        <_>
          <internalNodes>
            0 -1 3 -5.8585889637470245e-003</internalNodes>
          <leafValues>
            -5.9021335840225220e-001 1.5210334956645966e-001</leafValues></_>
        <_>
          <internalNodes>
            0 -1 100 1.3222888112068176e-002</internalNodes>
          <leafValues>
            -2.6940810680389404e-001 3.9434108138084412e-001</leafValues></_>
        <_>
          <internalNodes>
            0 -1 46 -7.3349394369870424e-004</internalNodes>
          <leafValues>
            -6.3469922542572021e-001 1.5576988458633423e-001</leafValues></_>
        <_>
          <internalNodes>
            0 -1 51 -2.9563717544078827e-004</internalNodes>
          <leafValues>
            -4.5275491476058960e-001 2.5148662924766541e-001</leafValues></_>
        <_>
          <internalNodes>
            0 -1 73 3.8074053823947906e-002</internalNodes>
          <leafValues>
            9.3390814960002899e-002 -7.8127145767211914e-001</leafValues></_>
        <_>
          <internalNodes>
            0 -1 130 9.8285805433988571e-003</internalNodes>
          <leafValues>
            -3.6472344398498535e-001 2.6633059978485107e-001</leafValues></_>
        <_>
          <internalNodes>
            0 -1 105 -2.9775351285934448e-002</internalNodes>
          <leafValues>
            -7.3628312349319458e-001 1.1090713739395142e-001</leafValues></_>
        <_>
          <internalNodes>
            0 -1 99 2.8585955500602722e-002</internalNodes>
          <leafValues>
            -1.7613048851490021e-001 5.1654434204101563e-001</leafValues></_>
        <_>
          <internalNodes>
            0 -1 35 -1.3349337503314018e-002</internalNodes>
          <leafValues>
            5.5944466590881348e-001 -1.9884224236011505e-001</leafValues></_>
        <_>
          <internalNodes>
            0 -1 6 2.0072567276656628e-003</internalNodes>
          <leafValues>
            -2.2613368928432465e-001 4.3679836392402649e-001</leafValues></_>
        <_>
          <internalNodes>
            0 -1 101 1.0403832420706749e-002</internalNodes>
          <leafValues>
            -1.1763677000999451e-001 7.5188070535659790e-001</leafValues></_>
        <_>
          <internalNodes>
            0 -1 2 -2.2813141345977783e-002</internalNodes>
          <leafValues>
            -6.8337064981460571e-001 1.5354244410991669e-001</leafValues></_>
        <_>
          <internalNodes>
            0 -1 67 -2.5531291030347347e-003</internalNodes>
          <leafValues>
            -6.1679744720458984e-001 1.3288523256778717e-001</leafValues></_>
        <_>
          <internalNodes>
            0 -1 37 -1.0617217980325222e-002</internalNodes>
          <leafValues>
            1.3172791898250580e-001 -6.0050690174102783e-001</leafValues></_>
        <_>
          <internalNodes>
            0 -1 38 -3.5697389394044876e-002</internalNodes>
          <leafValues>
            6.0666853189468384e-001 -1.5379798412322998e-001</leafValues></_>
        <_>
          <internalNodes>
            0 -1 21 -1.7453214386478066e-003</internalNodes>
          <leafValues>
            -8.2834142446517944e-001 1.2451924383640289e-001</leafValues></_>
        <_>
          <internalNodes>
            0 -1 34 -4.0914010256528854e-002</internalNodes>
          <leafValues>
            -6.6861486434936523e-001 1.3252773880958557e-001</leafValues></_></weakClassifiers></_></stages>
  <features>
    <_>
      <rects>
        <_>
          0 0 6 13 -1.</_>
        <_>
          3 0 3 13 2.</_></rects>
      <tilted>0</tilted></_>
    <_>
      <rects>
        <_>
          0 0 7 3 -1.</_>
        <_>
          0 1 7 1 3.</_></rects>
      <tilted>0</tilted></_>
    <_>
      <rects>
        <_>
          0 0 24 2 -1.</_>
        <_>
          8 0 8 2 3.</_></rects>
      <tilted>0</tilted></_>
    <_>
      <rects>
        <_>
          0 1 15 13 -1.</_>
        <_>
          5 1 5 13 3.</_></rects>
      <tilted>0</tilted></_>
    <_>
      <rects>
        <_>
          0 2 4 9 -1.</_>
        <_>
          1 2 2 9 2.</_></rects>
      <tilted>0</tilted></_>
    <_>
      <rects>
        <_>
          0 7 32 7 -1.</_>
        <_>
          8 7 16 7 2.</_></rects>
      <tilted>0</tilted></_>
    <_>
      <rects>
        <_>
          1 0 2 1 -1.</_>
        <_>
          1 0 1 1 2.</_></rects>
      <tilted>1</tilted></_>
    <_>
      <rects>
        <_>
          1 0 18 4 -1.</_>
        <_>
          7 0 6 4 3.</_></rects>
      <tilted>0</tilted></_>
    <_>
      <rects>
        <_>
          1 0 18 2 -1.</_>
        <_>
          1 0 9 1 2.</_>
        <_>
          10 1 9 1 2.</_></rects>
      <tilted>0</tilted></_>
    <_>
      <rects>
        <_>
          1 1 6 1 -1.</_>
        <_>
          1 1 3 1 2.</_></rects>
      <tilted>1</tilted></_>
    <_>
      <rects>
        <_>
          1 1 21 12 -1.</_>
        <_>
          8 5 7 4 9.</_></rects>
      <tilted>0</tilted></_>
    <_>
      <rects>
        <_>
          1 3 4 9 -1.</_>
        <_>
          3 3 2 9 2.</_></rects>
      <tilted>0</tilted></_>
    <_>
      <rects>
        <_>
          2 0 10 7 -1.</_>
        <_>
          7 0 5 7 2.</_></rects>
      <tilted>0</tilted></_>
    <_>
      <rects>
        <_>
          2 3 6 7 -1.</_>
        <_>
          4 3 2 7 3.</_></rects>
      <tilted>0</tilted></_>
    <_>
      <rects>
        <_>
          2 3 18 9 -1.</_>
        <_>
          8 3 6 9 3.</_></rects>
      <tilted>0</tilted></_>
    <_>
      <rects>
        <_>
          2 8 38 6 -1.</_>
        <_>
          2 11 38 3 2.</_></rects>
      <tilted>0</tilted></_>
    <_>
      <rects>
        <_>
          2 10 38 4 -1.</_>
        <_>
          2 12 38 2 2.</_></rects>
      <tilted>0</tilted></_>
    <_>
      <rects>
        <_>
          3 3 10 4 -1.</_>
        <_>
          8 3 5 4 2.</_></rects>
      <tilted>0</tilted></_>
    <_>
      <rects>
        <_>
          3 3 24 2 -1.</_>
        <_>
          9 3 12 2 2.</_></rects>
      <tilted>0</tilted></_>
    <_>
      <rects>
        <_>
          4 0 6 9 -1.</_>
        <_>
          6 0 2 9 3.</_></rects>
      <tilted>0</tilted></_>
    <_>
      <rects>
        <_>
          4 3 28 9 -1.</_>
        <_>
          11 3 14 9 2.</_></rects>
      <tilted>0</tilted></_>
    <_>
      <rects>
        <_>
          5 0 3 1 -1.</_>
        <_>
          6 0 1 1 3.</_></rects>
      <tilted>0</tilted></_>
    <_>
      <rects>
        <_>
          5 0 9 2 -1.</_>
        <_>
          8 0 3 2 3.</_></rects>
      <tilted>0</tilted></_>
    <_>
      <rects>
        <_>
          5 0 27 6 -1.</_>
        <_>
          14 0 9 6 3.</_></rects>
      <tilted>0</tilted></_>
    <_>
      <rects>
        <_>
          5 2 14 4 -1.</_>
        <_>
          5 2 7 2 2.</_>
        <_>
          12 4 7 2 2.</_></rects>
      <tilted>0</tilted></_>
    <_>
      <rects>
        <_>
          5 4 4 9 -1.</_>
        <_>
          7 4 2 9 2.</_></rects>
      <tilted>0</tilted></_>
    <_>
      <rects>
        <_>
          5 5 2 4 -1.</_>
        <_>
          5 5 2 2 2.</_></rects>
      <tilted>1</tilted></_>
    <_>
      <rects>
        <_>
          5 5 32 4 -1.</_>
        <_>
          5 5 16 2 2.</_>
        <_>
          21 7 16 2 2.</_></rects>
      <tilted>0</tilted></_>
    <_>
      <rects>
        <_>
          5 6 3 7 -1.</_>
        <_>
          6 6 1 7 3.</_></rects>
      <tilted>0</tilted></_>
    <_>
      <rects>
        <_>
          6 0 3 3 -1.</_>
        <_>
          6 1 3 1 3.</_></rects>
      <tilted>0</tilted></_>
    <_>
      <rects>
        <_>
          6 1 32 11 -1.</_>
        <_>
          22 1 16 11 2.</_></rects>
      <tilted>0</tilted></_>
    <_>
      <rects>
        <_>
          6 2 6 10 -1.</_>
        <_>
          8 2 2 10 3.</_></rects>
      <tilted>0</tilted></_>
    <_>
      <rects>
        <_>
          7 0 9 2 -1.</_>
        <_>
          10 0 3 2 3.</_></rects>
      <tilted>0</tilted></_>
    <_>
      <rects>
        <_>
          7 2 24 10 -1.</_>
        <_>
          15 2 8 10 3.</_></rects>
      <tilted>0</tilted></_>
    <_>
      <rects>
        <_>
          7 4 31 6 -1.</_>
        <_>
          7 6 31 2 3.</_></rects>
      <tilted>0</tilted></_>
    <_>
      <rects>
        <_>
          7 11 6 3 -1.</_>
        <_>
          7 12 6 1 3.</_></rects>
      <tilted>0</tilted></_>
    <_>
      <rects>
        <_>
          8 0 5 6 -1.</_>
        <_>
          8 3 5 3 2.</_></rects>
      <tilted>0</tilted></_>
    <_>
      <rects>
        <_>
          8 0 20 5 -1.</_>
        <_>
          13 0 10 5 2.</_></rects>
      <tilted>0</tilted></_>
    <_>
      <rects>
        <_>
          8 1 6 11 -1.</_>
        <_>
          10 1 2 11 3.</_></rects>
      <tilted>0</tilted></_>
    <_>
      <rects>
        <_>
          8 11 7 2 -1.</_>
        <_>
          8 12 7 1 2.</_></rects>
      <tilted>0</tilted></_>
    <_>
      <rects>
        <_>
          9 1 3 10 -1.</_>
        <_>
          10 1 1 10 3.</_></rects>
      <tilted>0</tilted></_>
    <_>
      <rects>
        <_>
          9 8 3 4 -1.</_>
        <_>
          10 8 1 4 3.</_></rects>
      <tilted>0</tilted></_>
    <_>
      <rects>
        <_>
          10 0 3 1 -1.</_>
        <_>
          11 0 1 1 3.</_></rects>
      <tilted>0</tilted></_>
    <_>
      <rects>
        <_>
          10 0 8 2 -1.</_>
        <_>
          12 0 4 2 2.</_></rects>
      <tilted>0</tilted></_>
    <_>
      <rects>
        <_>
          10 2 28 10 -1.</_>
        <_>
          24 2 14 10 2.</_></rects>
      <tilted>0</tilted></_>
    <_>
      <rects>
        <_>
          10 6 30 4 -1.</_>
        <_>
          10 8 30 2 2.</_></rects>
      <tilted>0</tilted></_>
    <_>
      <rects>
        <_>
          11 0 3 1 -1.</_>
        <_>
          12 0 1 1 3.</_></rects>
      <tilted>0</tilted></_>
    <_>
      <rects>
        <_>
          11 0 4 2 -1.</_>
        <_>
          12 0 2 2 2.</_></rects>
      <tilted>0</tilted></_>
    <_>
      <rects>
        <_>
          11 3 15 8 -1.</_>
        <_>
          16 3 5 8 3.</_></rects>
      <tilted>0</tilted></_>
    <_>
      <rects>
        <_>
          11 12 16 2 -1.</_>
        <_>
          15 12 8 2 2.</_></rects>
      <tilted>0</tilted></_>
    <_>
      <rects>
        <_>
          11 13 4 1 -1.</_>
        <_>
          12 13 2 1 2.</_></rects>
      <tilted>0</tilted></_>
    <_>
      <rects>
        <_>
          12 0 4 1 -1.</_>
        <_>
          13 0 2 1 2.</_></rects>
      <tilted>0</tilted></_>
    <_>
      <rects>
        <_>
          12 0 7 3 -1.</_>
        <_>
          12 1 7 1 3.</_></rects>
      <tilted>0</tilted></_>
    <_>
      <rects>
        <_>
          12 1 6 2 -1.</_>
        <_>
          14 1 2 2 3.</_></rects>
      <tilted>0</tilted></_>
    <_>
      <rects>
        <_>
          12 3 12 7 -1.</_>
        <_>
          16 3 4 7 3.</_></rects>
      <tilted>0</tilted></_>
    <_>
      <rects>
        <_>
          12 3 12 8 -1.</_>
        <_>
          16 3 4 8 3.</_></rects>
      <tilted>0</tilted></_>
    <_>
      <rects>
        <_>
          12 12 6 2 -1.</_>
        <_>
          14 12 2 2 3.</_></rects>
      <tilted>0</tilted></_>
    <_>
      <rects>
        <_>
          13 5 6 6 -1.</_>
        <_>
          15 5 2 6 3.</_></rects>
      <tilted>0</tilted></_>
    <_>
      <rects>
        <_>
          13 6 6 2 -1.</_>
        <_>
          13 6 3 2 2.</_></rects>
      <tilted>1</tilted></_>
    <_>
      <rects>
        <_>
          13 8 6 6 -1.</_>
        <_>
          13 8 3 3 2.</_>
        <_>
          16 11 3 3 2.</_></rects>
      <tilted>0</tilted></_>
    <_>
      <rects>
        <_>
          13 10 8 4 -1.</_>
        <_>
          13 11 8 2 2.</_></rects>
      <tilted>0</tilted></_>
    <_>
      <rects>
        <_>
          14 2 9 10 -1.</_>
        <_>
          17 2 3 10 3.</_></rects>
      <tilted>0</tilted></_>
    <_>
      <rects>
        <_>
          14 3 8 5 -1.</_>
        <_>
          16 3 4 5 2.</_></rects>
      <tilted>0</tilted></_>
    <_>
      <rects>
        <_>
          14 4 6 4 -1.</_>
        <_>
          16 4 2 4 3.</_></rects>
      <tilted>0</tilted></_>
    <_>
      <rects>
        <_>
          14 10 4 1 -1.</_>
        <_>
          16 10 2 1 2.</_></rects>
      <tilted>0</tilted></_>
    <_>
      <rects>
        <_>
          14 11 2 3 -1.</_>
        <_>
          14 12 2 1 3.</_></rects>
      <tilted>0</tilted></_>
    <_>
      <rects>
        <_>
          14 11 4 3 -1.</_>
        <_>
          14 12 4 1 3.</_></rects>
      <tilted>0</tilted></_>
    <_>
      <rects>
        <_>
          14 13 6 1 -1.</_>
        <_>
          16 13 2 1 3.</_></rects>
      <tilted>0</tilted></_>
    <_>
      <rects>
        <_>
          15 0 3 1 -1.</_>
        <_>
          16 0 1 1 3.</_></rects>
      <tilted>0</tilted></_>
    <_>
      <rects>
        <_>
          15 0 4 1 -1.</_>
        <_>
          16 0 2 1 2.</_></rects>
      <tilted>0</tilted></_>
    <_>
      <rects>
        <_>
          15 0 6 6 -1.</_>
        <_>
          15 0 6 3 2.</_></rects>
      <tilted>1</tilted></_>
    <_>
      <rects>
        <_>
          15 1 9 5 -1.</_>
        <_>
          18 1 3 5 3.</_></rects>
      <tilted>0</tilted></_>
    <_>
      <rects>
        <_>
          15 1 18 8 -1.</_>
        <_>
          24 1 9 8 2.</_></rects>
      <tilted>0</tilted></_>
    <_>
      <rects>
        <_>
          15 2 4 12 -1.</_>
        <_>
          15 8 4 6 2.</_></rects>
      <tilted>0</tilted></_>
    <_>
      <rects>
        <_>
          15 3 6 9 -1.</_>
        <_>
          17 3 2 9 3.</_></rects>
      <tilted>0</tilted></_>
    <_>
      <rects>
        <_>
          15 3 5 2 -1.</_>
        <_>
          15 3 5 1 2.</_></rects>
      <tilted>1</tilted></_>
    <_>
      <rects>
        <_>
          15 5 9 6 -1.</_>
        <_>
          18 5 3 6 3.</_></rects>
      <tilted>0</tilted></_>
    <_>
      <rects>
        <_>
          16 0 18 10 -1.</_>
        <_>
          22 0 6 10 3.</_></rects>
      <tilted>0</tilted></_>
    <_>
      <rects>
        <_>
          16 2 9 9 -1.</_>
        <_>
          19 2 3 9 3.</_></rects>
      <tilted>0</tilted></_>
    <_>
      <rects>
        <_>
          16 4 4 2 -1.</_>
        <_>
          18 4 2 2 2.</_></rects>
      <tilted>0</tilted></_>
    <_>
      <rects>
        <_>
          16 4 8 5 -1.</_>
        <_>
          18 4 4 5 2.</_></rects>
      <tilted>0</tilted></_>
    <_>
      <rects>
        <_>
          16 4 8 7 -1.</_>
        <_>
          18 4 4 7 2.</_></rects>
      <tilted>0</tilted></_>
    <_>
      <rects>
        <_>
          16 4 4 8 -1.</_>
        <_>
          18 4 2 8 2.</_></rects>
      <tilted>0</tilted></_>
    <_>
      <rects>
        <_>
          16 5 4 2 -1.</_>
        <_>
          17 5 2 2 2.</_></rects>
      <tilted>0</tilted></_>
    <_>
      <rects>
        <_>
          17 0 4 1 -1.</_>
        <_>
          18 0 2 1 2.</_></rects>
      <tilted>0</tilted></_>
    <_>
      <rects>
        <_>
          17 0 2 2 -1.</_>
        <_>
          18 0 1 2 2.</_></rects>
      <tilted>0</tilted></_>
    <_>
      <rects>
        <_>
          17 0 7 4 -1.</_>
        <_>
          17 1 7 2 2.</_></rects>
      <tilted>0</tilted></_>
    <_>
      <rects>
        <_>
          17 2 3 4 -1.</_>
        <_>
          17 2 3 2 2.</_></rects>
      <tilted>1</tilted></_>
    <_>
      <rects>
        <_>
          17 3 6 7 -1.</_>
        <_>
          20 3 3 7 2.</_></rects>
      <tilted>0</tilted></_>
    <_>
      <rects>
        <_>
          17 4 6 7 -1.</_>
        <_>
          19 4 2 7 3.</_></rects>
      <tilted>0</tilted></_>
    <_>
      <rects>
        <_>
          17 6 3 1 -1.</_>
        <_>
          18 6 1 1 3.</_></rects>
      <tilted>0</tilted></_>
    <_>
      <rects>
        <_>
          17 6 20 8 -1.</_>
        <_>
          17 10 20 4 2.</_></rects>
      <tilted>0</tilted></_>
    <_>
      <rects>
        <_>
          17 13 4 1 -1.</_>
        <_>
          18 13 2 1 2.</_></rects>
      <tilted>0</tilted></_>
    <_>
      <rects>
        <_>
          18 2 6 6 -1.</_>
        <_>
          20 2 2 6 3.</_></rects>
      <tilted>0</tilted></_>
    <_>
      <rects>
        <_>
          18 5 3 7 -1.</_>
        <_>
          19 5 1 7 3.</_></rects>
      <tilted>0</tilted></_>
    <_>
      <rects>
        <_>
          18 11 5 3 -1.</_>
        <_>
          18 12 5 1 3.</_></rects>
      <tilted>0</tilted></_>
    <_>
      <rects>
        <_>
          19 10 3 3 -1.</_>
        <_>
          19 11 3 1 3.</_></rects>
      <tilted>0</tilted></_>
    <_>
      <rects>
        <_>
          19 13 3 1 -1.</_>
        <_>
          20 13 1 1 3.</_></rects>
      <tilted>0</tilted></_>
    <_>
      <rects>
        <_>
          20 0 3 1 -1.</_>
        <_>
          21 0 1 1 3.</_></rects>
      <tilted>0</tilted></_>
    <_>
      <rects>
        <_>
          20 0 6 4 -1.</_>
        <_>
          20 0 6 2 2.</_></rects>
      <tilted>1</tilted></_>
    <_>
      <rects>
        <_>
          20 2 4 10 -1.</_>
        <_>
          21 2 2 10 2.</_></rects>
      <tilted>0</tilted></_>
    <_>
      <rects>
        <_>
          20 11 3 3 -1.</_>
        <_>
          20 12 3 1 3.</_></rects>
      <tilted>0</tilted></_>
    <_>
      <rects>
        <_>
          21 0 3 1 -1.</_>
        <_>
          22 0 1 1 3.</_></rects>
      <tilted>0</tilted></_>
    <_>
      <rects>
        <_>
          21 0 6 12 -1.</_>
        <_>
          23 0 2 12 3.</_></rects>
      <tilted>0</tilted></_>
    <_>
      <rects>
        <_>
          21 0 15 3 -1.</_>
        <_>
          26 0 5 3 3.</_></rects>
      <tilted>0</tilted></_>
    <_>
      <rects>
        <_>
          21 1 12 5 -1.</_>
        <_>
          25 1 4 5 3.</_></rects>
      <tilted>0</tilted></_>
    <_>
      <rects>
        <_>
          22 0 4 1 -1.</_>
        <_>
          23 0 2 1 2.</_></rects>
      <tilted>0</tilted></_>
    <_>
      <rects>
        <_>
          22 1 10 8 -1.</_>
        <_>
          27 1 5 8 2.</_></rects>
      <tilted>0</tilted></_>
    <_>
      <rects>
        <_>
          22 2 15 11 -1.</_>
        <_>
          27 2 5 11 3.</_></rects>
      <tilted>0</tilted></_>
    <_>
      <rects>
        <_>
          22 6 3 4 -1.</_>
        <_>
          23 6 1 4 3.</_></rects>
      <tilted>0</tilted></_>
    <_>
      <rects>
        <_>
          22 11 12 3 -1.</_>
        <_>
          26 11 4 3 3.</_></rects>
      <tilted>0</tilted></_>
    <_>
      <rects>
        <_>
          23 0 4 1 -1.</_>
        <_>
          24 0 2 1 2.</_></rects>
      <tilted>0</tilted></_>
    <_>
      <rects>
        <_>
          26 0 12 4 -1.</_>
        <_>
          30 0 4 4 3.</_></rects>
      <tilted>0</tilted></_>
    <_>
      <rects>
        <_>
          26 0 14 9 -1.</_>
        <_>
          33 0 7 9 2.</_></rects>
      <tilted>0</tilted></_>
    <_>
      <rects>
        <_>
          26 1 6 12 -1.</_>
        <_>
          28 1 2 12 3.</_></rects>
      <tilted>0</tilted></_>
    <_>
      <rects>
        <_>
          26 5 6 7 -1.</_>
        <_>
          28 5 2 7 3.</_></rects>
      <tilted>0</tilted></_>
    <_>
      <rects>
        <_>
          26 13 3 1 -1.</_>
        <_>
          27 13 1 1 3.</_></rects>
      <tilted>0</tilted></_>
    <_>
      <rects>
        <_>
          27 3 3 9 -1.</_>
        <_>
          28 3 1 9 3.</_></rects>
      <tilted>0</tilted></_>
    <_>
      <rects>
        <_>
          27 12 6 2 -1.</_>
        <_>
          29 12 2 2 3.</_></rects>
      <tilted>0</tilted></_>
    <_>
      <rects>
        <_>
          28 0 8 14 -1.</_>
        <_>
          32 0 4 14 2.</_></rects>
      <tilted>0</tilted></_>
    <_>
      <rects>
        <_>
          28 10 12 4 -1.</_>
        <_>
          31 10 6 4 2.</_></rects>
      <tilted>0</tilted></_>
    <_>
      <rects>
        <_>
          29 12 8 2 -1.</_>
        <_>
          29 13 8 1 2.</_></rects>
      <tilted>0</tilted></_>
    <_>
      <rects>
        <_>
          30 11 5 3 -1.</_>
        <_>
          30 12 5 1 3.</_></rects>
      <tilted>0</tilted></_>
    <_>
      <rects>
        <_>
          31 1 4 13 -1.</_>
        <_>
          32 1 2 13 2.</_></rects>
      <tilted>0</tilted></_>
    <_>
      <rects>
        <_>
          31 2 3 10 -1.</_>
        <_>
          32 2 1 10 3.</_></rects>
      <tilted>0</tilted></_>
    <_>
      <rects>
        <_>
          31 9 4 1 -1.</_>
        <_>
          31 9 2 1 2.</_></rects>
      <tilted>1</tilted></_>
    <_>
      <rects>
        <_>
          34 0 4 13 -1.</_>
        <_>
          35 0 2 13 2.</_></rects>
      <tilted>0</tilted></_>
    <_>
      <rects>
        <_>
          34 0 6 14 -1.</_>
        <_>
          37 0 3 14 2.</_></rects>
      <tilted>0</tilted></_>
    <_>
      <rects>
        <_>
          34 2 6 10 -1.</_>
        <_>
          36 2 2 10 3.</_></rects>
      <tilted>0</tilted></_>
    <_>
      <rects>
        <_>
          34 5 6 2 -1.</_>
        <_>
          36 5 2 2 3.</_></rects>
      <tilted>0</tilted></_>
    <_>
      <rects>
        <_>
          34 5 6 5 -1.</_>
        <_>
          36 5 2 5 3.</_></rects>
      <tilted>0</tilted></_>
    <_>
      <rects>
        <_>
          36 0 4 13 -1.</_>
        <_>
          38 0 2 13 2.</_></rects>
      <tilted>0</tilted></_>
    <_>
      <rects>
        <_>
          36 2 4 9 -1.</_>
        <_>
          38 2 2 9 2.</_></rects>
      <tilted>0</tilted></_></features></cascade>
</opencv_storage>
